{"learner":{"attributes":{"best_iteration":"42","best_score":"0.03898170246618934"},"feature_names":[],"feature_types":[],"gradient_booster":{"model":{"gbtree_model_param":{"num_parallel_tree":"1","num_trees":"2279"},"iteration_indptr":[0,43,86,129,172,215,258,301,344,387,430,473,516,559,602,645,688,731,774,817,860,903,946,989,1032,1075,1118,1161,1204,1247,1290,1333,1376,1419,1462,1505,1548,1591,1634,1677,1720,1763,1806,1849,1892,1935,1978,2021,2064,2107,2150,2193,2236,2279],"tree_info":[0,1,2,3,4,5,6,7,8,9,10,11,12,13,14,15,16,17,18,19,20,21,22,23,24,25,26,27,28,29,30,31,32,33,34,35,36,37,38,39,40,41,42,0,1,2,3,4,5,6,7,8,9,10,11,12,13,14,15,16,17,18,19,20,21,22,23,24,25,26,27,28,29,30,31,32,33,34,35,36,37,38,39,40,41,42,0,1,2,3,4,5,6,7,8,9,10,11,12,13,14,15,16,17,18,19,20,21,22,23,24,25,26,27,28,29,30,31,32,33,34,35,36,37,38,39,40,41,42,0,1,2,3,4,5,6,7,8,9,10,11,12,13,14,15,16,17,18,19,20,21,22,23,24,25,26,27,28,29,30,31,32,33,34,35,36,37,38,39,40,41,42,0,1,2,3,4,5,6,7,8,9,10,11,12,13,14,15,16,17,18,19,20,21,22,23,24,25,26,27,28,29,30,31,32,33,34,35,36,37,38,39,40,41,42,0,1,2,3,4,5,6,7,8,9,10,11,12,13,14,15,16,17,18,19,20,21,22,23,24,25,26,27,28,29,30,31,32,33,34,35,36,37,38,39,40,41,42,0,1,2,3,4,5,6,7,8,9,10,11,12,13,14,15,16,17,18,19,20,21,22,23,24,25,26,27,28,29,30,31,32,33,34,35,36,37,38,39,40,41,42,0,1,2,3,4,5,6,7,8,9,10,11,12,13,14,15,16,17,18,19,20,21,22,23,24,25,26,27,28,29,30,31,32,33,34,35,36,37,38,39,40,41,42,0,1,2,3,4,5,6,7,8,9,10,11,12,13,14,15,16,17,18,19,20,21,22,23,24,25,26,27,28,29,30,31,32,33,34,35,36,37,38,39,40,41,42,0,1,2,3,4,5,6,7,8,9,10,11,12,13,14,15,16,17,18,19,20,21,22,23,24,25,26,27,28,29,30,31,32,33,34,35,36,37,38,39,40,41,42,0,1,2,3,4,5,6,7,8,9,10,11,12,13,14,15,16,17,18,19,20,21,22,23,24,25,26,27,28,29,30,31,32,33,34,35,36,37,38,39,40,41,42,0,1,2,3,4,5,6,7,8,9,10,11,12,13,14,15,16,17,18,19,20,21,22,23,24,25,26,27,28,29,30,31,32,33,34,35,36,37,38,39,40,41,42,0,1,2,3,4,5,6,7,8,9,10,11,12,13,14,15,16,17,18,19,20,21,22,23,24,25,26,27,28,29,30,31,32,33,34,35,36,37,38,39,40,41,42,0,1,2,3,4,5,6,7,8,9,10,11,12,13,14,15,16,17,18,19,20,21,22,23,24,25,26,27,28,29,30,31,32,33,34,35,36,37,38,39,40,41,42,0,1,2,3,4,5,6,7,8,9,10,11,12,13,14,15,16,17,18,19,20,21,22,23,24,25,26,27,28,29,30,31,32,33,34,35,36,37,38,39,40,41,42,0,1,2,3,4,5,6,7,8,9,10,11,12,13,14,15,16,17,18,19,20,21,22,23,24,25,26,27,28,29,30,31,32,33,34,35,36,37,38,39,40,41,42,0,1,2,3,4,5,6,7,8,9,10,11,12,13,14,15,16,17,18,19,20,21,22,23,24,25,26,27,28,29,30,31,32,33,34,35,36,37,38,39,40,41,42,0,1,2,3,4,5,6,7,8,9,10,11,12,13,14,15,16,17,18,19,20,21,22,23,24,25,26,27,28,29,30,31,32,33,34,35,36,37,38,39,40,41,42,0,1,2,3,4,5,6,7,8,9,10,11,12,13,14,15,16,17,18,19,20,21,22,23,24,25,26,27,28,29,30,31,32,33,34,35,36,37,38,39,40,41,42,0,1,2,3,4,5,6,7,8,9,10,11,12,13,14,15,16,17,18,19,20,21,22,23,24,25,26,27,28,29,30,31,32,33,34,35,36,37,38,39,40,41,42,0,1,2,3,4,5,6,7,8,9,10,11,12,13,14,15,16,17,18,19,20,21,22,23,24,25,26,27,28,29,30,31,32,33,34,35,36,37,38,39,40,41,42,0,1,2,3,4,5,6,7,8,9,10,11,12,13,14,15,16,17,18,19,20,21,22,23,24,25,26,27,28,29,30,31,32,33,34,35,36,37,38,39,40,41,42,0,1,2,3,4,5,6,7,8,9,10,11,12,13,14,15,16,17,18,19,20,21,22,23,24,25,26,27,28,29,30,31,32,33,34,35,36,37,38,39,40,41,42,0,1,2,3,4,5,6,7,8,9,10,11,12,13,14,15,16,17,18,19,20,21,22,23,24,25,26,27,28,29,30,31,32,33,34,35,36,37,38,39,40,41,42,0,1,2,3,4,5,6,7,8,9,10,11,12,13,14,15,16,17,18,19,20,21,22,23,24,25,26,27,28,29,30,31,32,33,34,35,36,37,38,39,40,41,42,0,1,2,3,4,5,6,7,8,9,10,11,12,13,14,15,16,17,18,19,20,21,22,23,24,25,26,27,28,29,30,31,32,33,34,35,36,37,38,39,40,41,42,0,1,2,3,4,5,6,7,8,9,10,11,12,13,14,15,16,17,18,19,20,21,22,23,24,25,26,27,28,29,30,31,32,33,34,35,36,37,38,39,40,41,42,0,1,2,3,4,5,6,7,8,9,10,11,12,13,14,15,16,17,18,19,20,21,22,23,24,25,26,27,28,29,30,31,32,33,34,35,36,37,38,39,40,41,42,0,1,2,3,4,5,6,7,8,9,10,11,12,13,14,15,16,17,18,19,20,21,22,23,24,25,26,27,28,29,30,31,32,33,34,35,36,37,38,39,40,41,42,0,1,2,3,4,5,6,7,8,9,10,11,12,13,14,15,16,17,18,19,20,21,22,23,24,25,26,27,28,29,30,31,32,33,34,35,36,37,38,39,40,41,42,0,1,2,3,4,5,6,7,8,9,10,11,12,13,14,15,16,17,18,19,20,21,22,23,24,25,26,27,28,29,30,31,32,33,34,35,36,37,38,39,40,41,42,0,1,2,3,4,5,6,7,8,9,10,11,12,13,14,15,16,17,18,19,20,21,22,23,24,25,26,27,28,29,30,31,32,33,34,35,36,37,38,39,40,41,42,0,1,2,3,4,5,6,7,8,9,10,11,12,13,14,15,16,17,18,19,20,21,22,23,24,25,26,27,28,29,30,31,32,33,34,35,36,37,38,39,40,41,42,0,1,2,3,4,5,6,7,8,9,10,11,12,13,14,15,16,17,18,19,20,21,22,23,24,25,26,27,28,29,30,31,32,33,34,35,36,37,38,39,40,41,42,0,1,2,3,4,5,6,7,8,9,10,11,12,13,14,15,16,17,18,19,20,21,22,23,24,25,26,27,28,29,30,31,32,33,34,35,36,37,38,39,40,41,42,0,1,2,3,4,5,6,7,8,9,10,11,12,13,14,15,16,17,18,19,20,21,22,23,24,25,26,27,28,29,30,31,32,33,34,35,36,37,38,39,40,41,42,0,1,2,3,4,5,6,7,8,9,10,11,12,13,14,15,16,17,18,19,20,21,22,23,24,25,26,27,28,29,30,31,32,33,34,35,36,37,38,39,40,41,42,0,1,2,3,4,5,6,7,8,9,10,11,12,13,14,15,16,17,18,19,20,21,22,23,24,25,26,27,28,29,30,31,32,33,34,35,36,37,38,39,40,41,42,0,1,2,3,4,5,6,7,8,9,10,11,12,13,14,15,16,17,18,19,20,21,22,23,24,25,26,27,28,29,30,31,32,33,34,35,36,37,38,39,40,41,42,0,1,2,3,4,5,6,7,8,9,10,11,12,13,14,15,16,17,18,19,20,21,22,23,24,25,26,27,28,29,30,31,32,33,34,35,36,37,38,39,40,41,42,0,1,2,3,4,5,6,7,8,9,10,11,12,13,14,15,16,17,18,19,20,21,22,23,24,25,26,27,28,29,30,31,32,33,34,35,36,37,38,39,40,41,42,0,1,2,3,4,5,6,7,8,9,10,11,12,13,14,15,16,17,18,19,20,21,22,23,24,25,26,27,28,29,30,31,32,33,34,35,36,37,38,39,40,41,42,0,1,2,3,4,5,6,7,8,9,10,11,12,13,14,15,16,17,18,19,20,21,22,23,24,25,26,27,28,29,30,31,32,33,34,35,36,37,38,39,40,41,42,0,1,2,3,4,5,6,7,8,9,10,11,12,13,14,15,16,17,18,19,20,21,22,23,24,25,26,27,28,29,30,31,32,33,34,35,36,37,38,39,40,41,42,0,1,2,3,4,5,6,7,8,9,10,11,12,13,14,15,16,17,18,19,20,21,22,23,24,25,26,27,28,29,30,31,32,33,34,35,36,37,38,39,40,41,42,0,1,2,3,4,5,6,7,8,9,10,11,12,13,14,15,16,17,18,19,20,21,22,23,24,25,26,27,28,29,30,31,32,33,34,35,36,37,38,39,40,41,42,0,1,2,3,4,5,6,7,8,9,10,11,12,13,14,15,16,17,18,19,20,21,22,23,24,25,26,27,28,29,30,31,32,33,34,35,36,37,38,39,40,41,42,0,1,2,3,4,5,6,7,8,9,10,11,12,13,14,15,16,17,18,19,20,21,22,23,24,25,26,27,28,29,30,31,32,33,34,35,36,37,38,39,40,41,42,0,1,2,3,4,5,6,7,8,9,10,11,12,13,14,15,16,17,18,19,20,21,22,23,24,25,26,27,28,29,30,31,32,33,34,35,36,37,38,39,40,41,42,0,1,2,3,4,5,6,7,8,9,10,11,12,13,14,15,16,17,18,19,20,21,22,23,24,25,26,27,28,29,30,31,32,33,34,35,36,37,38,39,40,41,42,0,1,2,3,4,5,6,7,8,9,10,11,12,13,14,15,16,17,18,19,20,21,22,23,24,25,26,27,28,29,30,31,32,33,34,35,36,37,38,39,40,41,42,0,1,2,3,4,5,6,7,8,9,10,11,12,13,14,15,16,17,18,19,20,21,22,23,24,25,26,27,28,29,30,31,32,33,34,35,36,37,38,39,40,41,42,0,1,2,3,4,5,6,7,8,9,10,11,12,13,14,15,16,17,18,19,20,21,22,23,24,25,26,27,28,29,30,31,32,33,34,35,36,37,38,39,40,41,42],"trees":[{"base_weights":[-4.0041345E-1,-4.875398E-1,2.7979991E0,-5.024257E-1,8.672508E-1,-1.277692E-1,2.8432887E0,-5.061748E-1,5.8799695E-2,5.083576E-1,-8.460044E-2,-1.5298681E-1,5.4376397E-2],"categories":[],"categories_nodes":[],"categories_segments":[],"categories_sizes":[],"default_left":[0,0,0,0,0,0,0,0,0,0,0,0,0],"id":0,"left_children":[1,3,5,7,9,-1,-1,11,-1,-1,-1,-1,-1],"loss_changes":[7.7626854E1,5.825714E0,1.6351244E2,7.930908E-1,3.588226E0,0E0,0E0,7.7827454E-1,0E0,0E0,0E0,0E0,0E0],"parents":[2147483647,0,0,1,1,2,2,3,3,4,4,7,7],"right_children":[2,4,6,8,10,-1,-1,12,-1,-1,-1,-1,-1],"split_conditions":[3.41339E-1,4.94162E-1,2.80053E-1,5.41979E-1,4.50785E-2,-1.277692E-1,2.8432887E0,3.25527E-1,5.8799695E-2,5.083576E-1,-8.460044E-2,-1.5298681E-1,5.4376397E-2],"split_indices":[570,467,811,1347,2,0,0,570,0,0,0,0,0],"split_type":[0,0,0,0,0,0,0,0,0,0,0,0,0],"sum_hessian":[2.7267062E2,2.6626498E2,6.4056244E0,2.639935E2,2.271498E0,4.9518657E0,1.4537587E0,2.6285776E2,1.135749E0,1.0448891E0,1.2266089E0,2.6167657E2,1.1811789E0],"tree_param":{"num_deleted":"0","num_feature":"1568","num_nodes":"13","size_leaf_vector":"1"}},{"base_weights":[7.1927965E-1,-2.0335753E-1,4.743541E0,-3.71753E-1,1.3046649E0,9.5486957E-1,1.0618843E1,8.2144576E-1,-4.0369713E-1,-1.22408055E-1,4.466601E0,4.4043213E-1,5.1384497E0,2.0422165E0,1.5915745E1,-1.2010608E-1,9.484793E-1,-4.4496018E-1,2.2530076E-1,-4.1315484E-1,5.3303397E-1,5.6167704E-1,2.8987195E0,-2.8737918E-2,2.7621448E0,2.3406122E0,5.0133597E-2,5.261867E0,-2.6356936E-1,-8.9804634E-2,1.8046421E1,3.441765E-1,-4.6529716E-1,-1.3848117E-1,2.04108E0,-1.4280625E-1,6.823592E-2,-1.1601641E-1,6.550648E-1,-3.554233E-1,1.6243168E0,4.6063704E0,-9.905933E-2,2.501727E0,3.4763083E-2,6.823592E-2,-1.2312065E-1,5.718042E0,1.666942E0,-1.172277E-1,5.083576E-1,-1.4281026E-1,2.0693402E-1,-9.628808E-2,1.2418938E0,-1.461747E-1,2.3941901E-1,-1.0458859E-1,1.0777597E0,1.9291593E0,1.9926564E-1],"categories":[],"categories_nodes":[],"categories_segments":[],"categories_sizes":[],"default_left":[0,0,0,0,0,0,0,0,0,0,0,0,0,0,0,0,0,0,0,0,0,0,0,0,0,0,0,0,0,0,0,0,0,0,0,0,0,0,0,0,0,0,0,0,0,0,0,0,0,0,0,0,0,0,0,0,0,0,0,0,0],"id":1,"left_children":[1,3,5,7,9,11,13,15,17,19,21,23,25,27,29,-1,-1,31,33,35,-1,37,-1,39,41,-1,-1,43,45,-1,47,49,51,-1,53,-1,-1,-1,-1,55,57,59,-1,-1,-1,-1,-1,-1,-1,-1,-1,-1,-1,-1,-1,-1,-1,-1,-1,-1,-1],"loss_changes":[1.0248445E3,5.7695503E1,1.1356212E3,8.085714E0,1.0366127E2,6.745083E1,8.7974854E2,1.7374054E1,5.2600365E0,9.9659E0,1.3929657E2,3.2691147E1,4.4422333E1,6.682011E1,4.292036E2,0E0,0E0,3.159626E0,1.7035223E1,7.248604E-1,0E0,8.741643E0,0E0,1.45617E1,3.028265E1,0E0,0E0,5.8033028E1,5.3229237E-1,0E0,3.1572998E1,5.8926144E0,2.593338E0,0E0,1.9797058E1,0E0,0E0,0E0,0E0,3.8015103E0,1.8543015E1,1.8927734E1,0E0,0E0,0E0,0E0,0E0,0E0,0E0,0E0,0E0,0E0,0E0,0E0,0E0,0E0,0E0,0E0,0E0,0E0,0E0],"parents":[2147483647,0,0,1,1,2,2,3,3,4,4,5,5,6,6,7,7,8,8,9,9,10,10,11,11,12,12,13,13,14,14,17,17,18,18,19,19,21,21,23,23,24,24,27,27,28,28,30,30,31,31,32,32,34,34,39,39,40,40,41,41],"right_children":[2,4,6,8,10,12,14,16,18,20,22,24,26,28,30,-1,-1,32,34,36,-1,38,-1,40,42,-1,-1,44,46,-1,48,50,52,-1,54,-1,-1,-1,-1,56,58,60,-1,-1,-1,-1,-1,-1,-1,-1,-1,-1,-1,-1,-1,-1,-1,-1,-1,-1,-1],"split_conditions":[1.91035E-1,1.3745E-1,1.43975E-1,4.47902E-4,5.16258E-2,1.98833E-1,9.83824E-3,7.02359E-2,4.74277E-1,2.33111E-1,1.57088E-1,9.11683E-2,2.68732E-2,7.11123E-2,1.81976E-1,-1.2010608E-1,9.484793E-1,4.62926E-4,9.06421E-2,2.99798E-1,5.3303397E-1,1.73318E-1,2.8987195E0,4.05061E-1,5.68201E-2,2.3406122E0,5.0133597E-2,6.00321E-2,3.87435E-2,-8.9804634E-2,3.74372E-2,3.47316E-1,2.86398E-1,-1.3848117E-1,4.72E-2,-1.4280625E-1,6.823592E-2,-1.1601641E-1,6.550648E-1,3.85177E-1,2.95262E-1,8.8035E-2,-9.905933E-2,2.501727E0,3.4763083E-2,6.823592E-2,-1.2312065E-1,5.718042E0,1.666942E0,-1.172277E-1,5.083576E-1,-1.4281026E-1,2.0693402E-1,-9.628808E-2,1.2418938E0,-1.461747E-1,2.3941901E-1,-1.0458859E-1,1.0777597E0,1.9291593E0,1.9926564E-1],"split_indices":[810,810,750,49,547,749,371,749,799,1379,750,947,1333,553,1007,0,0,28,806,14,0,562,0,514,409,0,0,789,0,0,796,231,602,0,572,0,0,0,0,1066,1015,424,0,0,0,0,0,0,0,0,0,0,0,0,0,0,0,0,0,0,0],"split_type":[0,0,0,0,0,0,0,0,0,0,0,0,0,0,0,0,0,0,0,0,0,0,0,0,0,0,0,0,0,0,0,0,0,0,0,0,0,0,0,0,0,0,0,0,0,0,0,0,0,0,0,0,0,0,0,0,0,0,0,0,0],"sum_hessian":[2.747604E2,2.242877E2,5.0472687E1,2.024359E2,2.185181E1,3.1392103E1,1.9080584E1,4.633856E0,1.9780205E2,1.5718766E1,6.1330447E0,2.8938885E1,2.4532177E0,7.813953E0,1.126663E1,3.5889668E0,1.0448891E0,1.858994E2,1.190265E1,1.4310437E1,1.4083288E0,4.134126E0,1.9989183E0,2.4895618E1,4.0432663E0,1.2266089E0,1.2266089E0,2.7257977E0,5.0881557E0,1.4083288E0,9.858301E0,4.2704163E0,1.8162898E2,9.176852E0,2.7257977E0,1.3265549E1,1.0448891E0,3.0892372E0,1.0448891E0,2.1442942E1,3.452677E0,2.226068E0,1.8171984E0,1.3174689E0,1.4083288E0,1.0448891E0,4.0432663E0,8.631692E0,1.2266089E0,3.225527E0,1.0448891E0,1.8053867E2,1.090319E0,1.6809086E0,1.0448891E0,1.9762033E1,1.6809086E0,2.1352081E0,1.3174689E0,1.090319E0,1.135749E0],"tree_param":{"num_deleted":"0","num_feature":"1568","num_nodes":"61","size_leaf_vector":"1"}},{"base_weights":[8.091409E-1,1.17589034E-1,5.4774942E0,-3.5574964E-1,2.1129012E0,9.4177693E-1,1.5927056E1,-4.3248317E-1,6.9555074E-1,-1.9941011E-1,6.163357E0,-3.873214E-2,5.4833236E0,5.4675746E0,3.8384072E-2,-4.538113E-1,3.3477074E-1,-2.7959788E-1,3.2456238E0,-3.913084E-1,6.894049E-1,-1.25637E-1,8.592849E0,2.2068326E0,-4.3522507E-1,7.67042E0,-8.460044E-2,-4.6989492E-1,6.082457E-1,-1.3784952E-1,2.1494316E-1,-9.7242616E-2,1.884857E0,-1.4810164E-1,3.6165038E-1,1.2766915E1,2.577717E0,-9.098524E-2,1.2418938E0,-1.4534687E-1,6.823592E-2,2.9427228E0,6.045376E-1,-1.4426245E-1,1.9191669E-1,-8.0103494E-2,3.6165038E-1,7.2380376E-1,4.3607836E0,1.0407354E-1,1.3819112E0],"categories":[],"categories_nodes":[],"categories_segments":[],"categories_sizes":[],"default_left":[0,0,0,0,0,0,0,0,0,0,0,0,0,0,0,0,0,0,0,0,0,0,0,0,0,0,0,0,0,0,0,0,0,0,0,0,0,0,0,0,0,0,0,0,0,0,0,0,0,0,0],"id":2,"left_children":[1,3,5,7,9,11,13,15,17,19,21,23,25,-1,-1,27,-1,29,31,33,-1,-1,35,37,39,41,-1,43,45,-1,-1,-1,-1,-1,-1,47,49,-1,-1,-1,-1,-1,-1,-1,-1,-1,-1,-1,-1,-1,-1],"loss_changes":[8.877165E2,2.280719E2,1.6666831E3,1.606331E1,4.3481158E2,1.1512168E2,3.8532837E2,6.540577E0,3.4912994E1,1.5486996E1,2.731325E2,2.0740313E1,6.002684E1,0E0,0E0,3.3767204E0,0E0,2.2668262E0,4.3910095E1,5.3551307E0,0E0,0E0,2.7735687E2,1.8229483E1,7.538936E-1,2.0900269E1,0E0,2.4861908E0,1.9608201E0,0E0,0E0,0E0,0E0,0E0,0E0,9.392078E1,2.698211E1,0E0,0E0,0E0,0E0,0E0,0E0,0E0,0E0,0E0,0E0,0E0,0E0,0E0,0E0],"parents":[2147483647,0,0,1,1,2,2,3,3,4,4,5,5,6,6,7,7,8,8,9,9,10,10,11,11,12,12,15,15,17,17,18,18,19,19,22,22,23,23,24,24,25,25,27,27,28,28,35,35,36,36],"right_children":[2,4,6,8,10,12,14,16,18,20,22,24,26,-1,-1,28,-1,30,32,34,-1,-1,36,38,40,42,-1,44,46,-1,-1,-1,-1,-1,-1,48,50,-1,-1,-1,-1,-1,-1,-1,-1,-1,-1,-1,-1,-1,-1],"split_conditions":[2.17565E-1,1.48791E-1,2.08422E-1,1.56169E-1,8.72526E-2,1.49365E-1,1.52543E-1,3.41692E-1,2.74139E-2,1.94239E-1,2.18822E-1,4.07012E-3,2.61403E-2,5.4675746E0,3.8384072E-2,5.03E-1,3.3477074E-1,2.02051E-1,1.56298E-1,2.16132E-1,6.894049E-1,-1.25637E-1,8.5293E-2,1.90444E-1,1.79284E-1,3.55738E-1,-8.460044E-2,2.76923E-1,5.19173E-2,-1.3784952E-1,2.1494316E-1,-9.7242616E-2,1.884857E0,-1.4810164E-1,3.6165038E-1,1.10549E-1,1.10883E-2,-9.098524E-2,1.2418938E0,-1.4534687E-1,6.823592E-2,2.9427228E0,6.045376E-1,-1.4426245E-1,1.9191669E-1,-8.0103494E-2,3.6165038E-1,7.2380376E-1,4.3607836E0,1.0407354E-1,1.3819112E0],"split_indices":[564,780,760,564,992,963,750,906,759,963,559,1228,86,0,0,383,0,202,551,1037,0,0,569,189,74,1447,0,547,2,0,0,0,0,0,0,573,930,0,0,0,0,0,0,0,0,0,0,0,0,0,0],"split_type":[0,0,0,0,0,0,0,0,0,0,0,0,0,0,0,0,0,0,0,0,0,0,0,0,0,0,0,0,0,0,0,0,0,0,0,0,0,0,0,0,0,0,0,0,0,0,0,0,0,0,0],"sum_hessian":[2.741698E2,2.3968846E2,3.448134E1,1.943948E2,4.529367E1,2.4804758E1,9.676581E0,1.8171983E2,1.2674959E1,2.9438614E1,1.5855056E1,2.1215792E1,3.5889668E0,8.313683E0,1.3628988E0,1.7994807E2,1.7717685E0,9.812871E0,2.8620875E0,2.8121145E1,1.3174689E0,4.497566E0,1.135749E1,2.4986477E0,1.8717144E1,2.3623579E0,1.2266089E0,1.7781287E2,2.1352081E0,8.7679825E0,1.0448891E0,1.7263385E0,1.135749E0,2.7076256E1,1.0448891E0,6.042185E0,5.315305E0,1.4537587E0,1.0448891E0,1.7672255E1,1.0448891E0,1.1811789E0,1.1811789E0,1.7663168E2,1.1811789E0,1.090319E0,1.0448891E0,1.2266089E0,4.8155756E0,3.0892372E0,2.226068E0],"tree_param":{"num_deleted":"0","num_feature":"1568","num_nodes":"51","size_leaf_vector":"1"}},{"base_weights":[2.7674824E-1,4.1363295E-2,6.064464E0,-2.4854183E-1,1.6845349E0,-3.1143782E-1,4.8352056E0,2.1026804E0,-3.1470948E-1,-1.81829E-1,8.1046715E0,6.823592E-2,-1.2993425E-1,1.801676E0,-1.8280374E-2,-3.452323E-1,7.1651703E-1,-3.975522E-1,9.015954E-1,8.824737E-1,1.1487963E1,-1.155945E-1,2.1494316E-1,-4.856448E-1,1.6195676E-1,-1.4839481E-1,3.6165038E-1,6.550648E-1,-1.00762516E-1,4.450109E0,-8.7304555E-2,-1.491351E-1,1.01574816E-1,-3.3253267E-2,1.2554525E0],"categories":[],"categories_nodes":[],"categories_segments":[],"categories_sizes":[],"default_left":[0,0,0,0,0,0,0,0,0,0,0,0,0,0,0,0,0,0,0,0,0,0,0,0,0,0,0,0,0,0,0,0,0,0,0],"id":3,"left_children":[1,3,5,7,9,11,-1,13,15,17,19,-1,-1,-1,21,23,-1,25,-1,27,29,-1,-1,31,33,-1,-1,-1,-1,-1,-1,-1,-1,-1,-1],"loss_changes":[3.7375784E2,1.2656544E2,6.9226013E2,3.581685E1,4.788803E2,5.930384E-1,0E0,5.2387318E1,1.9029877E1,2.3090866E1,2.0966956E2,0E0,0E0,0E0,1.6483963E0,1.5679432E1,0E0,5.3765574E0,0E0,6.9994698E0,2.4245654E2,0E0,0E0,1.7929573E0,5.3412563E1,0E0,0E0,0E0,0E0,0E0,0E0,0E0,0E0,0E0,0E0],"parents":[2147483647,0,0,1,1,2,2,3,3,4,4,5,5,7,7,8,8,9,9,10,10,14,14,15,15,17,17,19,19,20,20,23,23,24,24],"right_children":[2,4,6,8,10,12,-1,14,16,18,20,-1,-1,-1,22,24,-1,26,-1,28,30,-1,-1,32,34,-1,-1,-1,-1,-1,-1,-1,-1,-1,-1],"split_conditions":[4.38955E-1,4.22561E-1,2.63209E-1,1.75161E-4,1.38915E-1,6.59708E-3,4.8352056E0,4.86499E-3,4.19464E-1,3.69149E-1,1.7585E-1,6.823592E-2,-1.2993425E-1,1.801676E0,1.07806E-1,1.57206E-1,7.1651703E-1,7.34365E-1,9.015954E-1,5.32152E-2,6.75386E-2,-1.155945E-1,2.1494316E-1,5.27935E-1,4.24461E-1,-1.4839481E-1,3.6165038E-1,6.550648E-1,-1.00762516E-1,4.450109E0,-8.7304555E-2,-1.491351E-1,1.01574816E-1,-3.3253267E-2,1.2554525E0],"split_indices":[760,521,545,1392,992,0,0,466,1362,1224,561,0,0,0,8,785,0,57,0,55,758,0,0,1282,828,0,0,0,0,0,0,0,0,0,0],"split_type":[0,0,0,0,0,0,0,0,0,0,0,0,0,0,0,0,0,0,0,0,0,0,0,0,0,0,0,0,0,0,0,0,0,0,0],"sum_hessian":[2.7353378E2,2.6381177E2,9.722012E0,2.2496916E2,3.8842617E1,6.541914E0,3.180097E0,5.315305E0,2.1965385E2,3.0846943E1,7.995673E0,1.0448891E0,5.497025E0,1.2266089E0,4.0886965E0,2.1806381E2,1.5900486E0,2.9711193E1,1.135749E0,2.9529474E0,5.0427256E0,3.0438073E0,1.0448891E0,1.7081665E2,4.7247158E1,2.8666306E1,1.0448891E0,1.0448891E0,1.9080583E0,3.7252567E0,1.3174689E0,1.6886316E2,1.9534882E0,4.515738E1,2.0897782E0],"tree_param":{"num_deleted":"0","num_feature":"1568","num_nodes":"35","size_leaf_vector":"1"}},{"base_weights":[7.00718E-1,1.6379371E-2,5.4456964E0,-1.808967E-1,2.5877323E0,1.4901723E-1,1.2202765E1,-4.504506E-1,4.0658626E-1,-2.4256504E-1,9.155471E0,-3.308707E-1,1.388601E0,1.7815168E1,7.312271E-1,-4.760198E-1,4.669973E-1,-1.7662749E-1,2.779981E0,-1.4076747E-1,3.6165038E-1,3.850231E0,1.3737734E-1,-1.4520437E-1,3.6165038E-1,5.6287937E0,1.801676E0,9.484793E-1,-1.22843854E-1,-4.8877388E-1,1.1830244E-1,8.358377E-1,-4.5753786E-1,4.8971915E-1,7.3665543E0,-1.5252228E-1,9.7325845E-3,-1.0463326E-1,8.9474654E-1,-1.5007572E-1,7.6773025E-2,8.1534994E-1,-6.8512306E-2,3.1029098E0,3.8384072E-2],"categories":[],"categories_nodes":[],"categories_segments":[],"categories_sizes":[],"default_left":[0,0,0,0,0,0,0,0,0,0,0,0,0,0,0,0,0,0,0,0,0,0,0,0,0,0,0,0,0,0,0,0,0,0,0,0,0,0,0,0,0,0,0,0,0],"id":4,"left_children":[1,3,5,7,9,11,13,15,17,19,21,23,-1,25,27,29,-1,31,33,-1,-1,-1,-1,-1,-1,-1,-1,-1,-1,35,-1,37,39,41,43,-1,-1,-1,-1,-1,-1,-1,-1,-1,-1],"loss_changes":[8.9299176E2,1.2290695E2,1.2387926E3,3.5830555E1,3.231339E2,4.5480644E1,9.668535E2,8.684359E0,9.9219635E1,4.845272E0,1.6129675E2,5.1478224E0,0E0,1.1914062E0,1.8047098E1,1.8977928E0,0E0,1.6934158E1,1.4481259E2,0E0,0E0,0E0,0E0,0E0,0E0,0E0,0E0,0E0,0E0,1.5702057E0,0E0,3.4082134E1,1.5360317E0,1.74124E1,9.85273E1,0E0,0E0,0E0,0E0,0E0,0E0,0E0,0E0,0E0,0E0],"parents":[2147483647,0,0,1,1,2,2,3,3,4,4,5,5,6,6,7,7,8,8,9,9,10,10,11,11,13,13,14,14,15,15,17,17,18,18,29,29,31,31,32,32,33,33,34,34],"right_children":[2,4,6,8,10,12,14,16,18,20,22,24,-1,26,28,30,-1,32,34,-1,-1,-1,-1,-1,-1,-1,-1,-1,-1,36,-1,38,40,42,44,-1,-1,-1,-1,-1,-1,-1,-1,-1,-1],"split_conditions":[2.69532E-1,2.95484E-1,1.8133E-1,1.77123E-1,2.37975E-1,2.19228E-1,1.79549E-1,5.03029E-1,1.67642E-1,2.98703E-1,1.2022E-1,1.17931E-1,1.388601E0,1.10223E-1,2.04001E-1,4.3175E-1,4.669973E-1,5.02563E-2,1.19198E-1,-1.4076747E-1,3.6165038E-1,3.850231E0,1.3737734E-1,-1.4520437E-1,3.6165038E-1,5.6287937E0,1.801676E0,9.484793E-1,-1.22843854E-1,5.48693E-1,1.1830244E-1,3.42431E-2,1.24982E-1,4.88353E-2,2.04319E-1,-1.5252228E-1,9.7325845E-3,-1.0463326E-1,8.9474654E-1,-1.5007572E-1,7.6773025E-2,8.1534994E-1,-6.8512306E-2,3.1029098E0,3.8384072E-2],"split_indices":[777,800,1248,964,590,740,811,823,800,96,574,558,0,794,289,830,0,596,787,0,0,0,0,0,0,0,0,0,0,1049,0,572,1046,597,811,0,0,0,0,0,0,0,0,0,0],"split_type":[0,0,0,0,0,0,0,0,0,0,0,0,0,0,0,0,0,0,0,0,0,0,0,0,0,0,0,0,0,0,0,0,0,0,0,0,0,0,0,0,0,0,0,0,0],"sum_hessian":[2.740335E2,2.4036992E2,3.36636E1,2.2410599E2,1.6263926E1,1.9444023E1,1.4219578E1,1.5378041E2,7.032558E1,1.2038939E1,4.224986E0,1.8399134E1,1.0448891E0,9.176852E0,5.0427256E0,1.5259923E2,1.1811789E0,5.719632E1,1.3129258E1,1.099405E1,1.0448891E0,2.6349378E0,1.5900486E0,1.7354244E1,1.0448891E0,7.950243E0,1.2266089E0,1.0448891E0,3.9978366E0,1.5082747E2,1.7717685E0,1.1993509E1,4.520281E1,9.494862E0,3.6343968E0,1.4537587E2,5.4515953E0,8.268252E0,3.7252567E0,4.2931313E1,2.271498E0,1.6354785E0,7.859383E0,2.271498E0,1.3628988E0],"tree_param":{"num_deleted":"0","num_feature":"1568","num_nodes":"45","size_leaf_vector":"1"}},{"base_weights":[5.405488E-1,-1.1228491E-1,2.5372915E0,-3.0750647E-1,1.0037612E0,9.595204E0,1.3757316E0,-3.6558798E-1,1.6723448E0,2.4689087E-1,3.1999185E0,8.2119036E-1,1.3820246E1,1.6274205E-1,3.548316E0,-4.0410557E-1,1.5546794E0,-1.337752E-1,1.2344204E0,1.2418938E0,-1.0456957E-1,4.6845064E0,-1.066292E-1,6.550648E-1,-1.0386838E-1,6.374903E-1,4.756216E0,-3.808836E-1,3.329058E0,-1.373982E-1,6.240618E0,-4.3812767E-1,1.56512E0,-9.427856E-2,9.484793E-1,6.823592E-2,-1.01574816E-1,-3.456645E-1,1.506622E0,7.2863283E0,8.120933E-1,2.0314963E-1,-4.6536022E-1,-1.1023959E-1,6.275069E0,6.439474E-1,9.333113E0,-1.3826403E-1,2.0534922E-1,-8.0103494E-2,8.0177206E-1,-1.4556125E-1,2.0314963E-1,-8.31639E-2,8.0177206E-1,6.550648E-1,2.6100805E0,-8.857863E-2,5.083576E-1,-1.4868656E-1,6.823592E-2,2.4227805E0,3.6165038E-1,-1.2010608E-1,8.0177206E-1,3.6166298E0,2.8450903E-1],"categories":[],"categories_nodes":[],"categories_segments":[],"categories_sizes":[],"default_left":[0,0,0,0,0,0,0,0,0,0,0,0,0,0,0,0,0,0,0,0,0,0,0,0,0,0,0,0,0,0,0,0,0,0,0,0,0,0,0,0,0,0,0,0,0,0,0,0,0,0,0,0,0,0,0,0,0,0,0,0,0,0,0,0,0,0,0],"id":5,"left_children":[1,3,5,7,9,11,13,15,17,19,21,23,25,27,29,31,33,35,-1,-1,37,39,-1,-1,-1,-1,-1,41,43,-1,45,47,49,-1,-1,-1,-1,51,53,55,57,-1,59,-1,61,63,65,-1,-1,-1,-1,-1,-1,-1,-1,-1,-1,-1,-1,-1,-1,-1,-1,-1,-1,-1,-1],"loss_changes":[3.601052E2,4.5840084E1,5.4472424E2,2.1152674E1,5.1315502E1,3.389668E2,1.565E2,1.3524685E1,2.3799566E1,3.381084E1,4.3631065E1,7.3319583E0,1.16526245E2,6.891032E1,2.3268173E2,1.2190866E1,1.1910144E1,3.7282065E-1,0E0,0E0,9.591694E0,5.1303497E1,0E0,0E0,0E0,0E0,0E0,3.3930702E0,6.613223E1,0E0,2.1573227E2,4.6472282E0,7.0749474E0,0E0,0E0,0E0,0E0,3.3437033E0,7.450658E0,4.6064606E0,3.8303034E0,0E0,7.9375696E-1,0E0,2.0546677E1,1.3005277E1,1.7523627E2,0E0,0E0,0E0,0E0,0E0,0E0,0E0,0E0,0E0,0E0,0E0,0E0,0E0,0E0,0E0,0E0,0E0,0E0,0E0,0E0],"parents":[2147483647,0,0,1,1,2,2,3,3,4,4,5,5,6,6,7,7,8,8,9,9,10,10,11,11,12,12,13,13,14,14,15,15,16,16,17,17,20,20,21,21,27,27,28,28,30,30,31,31,32,32,37,37,38,38,39,39,40,40,42,42,44,44,45,45,46,46],"right_children":[2,4,6,8,10,12,14,16,18,20,22,24,26,28,30,32,34,36,-1,-1,38,40,-1,-1,-1,-1,-1,42,44,-1,46,48,50,-1,-1,-1,-1,52,54,56,58,-1,60,-1,62,64,66,-1,-1,-1,-1,-1,-1,-1,-1,-1,-1,-1,-1,-1,-1,-1,-1,-1,-1,-1,-1],"split_conditions":[1.44864E-1,4.75476E-1,2.35514E-5,4.3995E-1,3.02162E-1,2.09077E-1,1.20327E-1,1.70765E-1,2.00268E-1,2.29931E-2,2.60024E-1,5.16441E-2,7.55906E-2,1.07104E-1,6.22098E-2,5.36241E-1,8.35754E-2,6.19146E-2,1.2344204E0,1.2418938E0,4.61411E-1,1.52735E-2,-1.066292E-1,6.550648E-1,-1.0386838E-1,6.374903E-1,4.756216E0,1.07821E-3,1.48146E-1,-1.373982E-1,2.40746E-2,2.90756E-1,4.43839E-2,-9.427856E-2,9.484793E-1,6.823592E-2,-1.01574816E-1,1.80205E-1,1.10695E-1,3.45039E-1,1.01236E-1,2.0314963E-1,2.72692E-1,-1.1023959E-1,5.3369E-3,1.99044E-1,3.63071E-2,-1.3826403E-1,2.0534922E-1,-8.0103494E-2,8.0177206E-1,-1.4556125E-1,2.0314963E-1,-8.31639E-2,8.0177206E-1,6.550648E-1,2.6100805E0,-8.857863E-2,5.083576E-1,-1.4868656E-1,6.823592E-2,2.4227805E0,3.6165038E-1,-1.2010608E-1,8.0177206E-1,3.6166298E0,2.8450903E-1],"split_indices":[749,1472,340,552,1248,1015,571,533,1047,288,539,79,761,780,992,1257,174,4,0,0,605,846,0,0,0,0,0,340,1007,0,345,410,13,0,0,0,0,830,60,908,5,0,160,0,855,552,586,0,0,0,0,0,0,0,0,0,0,0,0,0,0,0,0,0,0,0,0],"split_type":[0,0,0,0,0,0,0,0,0,0,0,0,0,0,0,0,0,0,0,0,0,0,0,0,0,0,0,0,0,0,0,0,0,0,0,0,0,0,0,0,0,0,0,0,0,0,0,0,0,0,0,0,0,0,0,0,0,0,0,0,0,0,0,0,0,0,0],"sum_hessian":[2.75033E2,2.0797836E2,6.705462E1,1.7763115E2,3.0347214E1,8.449972E0,5.860465E1,1.7336073E2,4.2704163E0,2.339643E1,6.9507837E0,3.1346672E0,5.315305E0,3.8297455E1,2.0307192E1,1.7072578E2,2.6349378E0,2.9983773E0,1.2720389E0,1.0448891E0,2.235154E1,4.679286E0,2.271498E0,1.0448891E0,2.0897782E0,1.090319E0,4.224986E0,3.343645E1,4.861006E0,8.495402E0,1.18117895E1,1.6859058E2,2.1352081E0,1.5900486E0,1.0448891E0,1.0448891E0,1.9534882E0,2.0125473E1,2.226068E0,2.271498E0,2.4077878E0,1.9534882E0,3.1482962E1,2.5440779E0,2.316928E0,4.633856E0,7.1779337E0,1.6581935E2,2.7712276E0,1.090319E0,1.0448891E0,1.8171984E1,1.9534882E0,1.1811789E0,1.0448891E0,1.0448891E0,1.2266089E0,1.3628988E0,1.0448891E0,3.0438072E1,1.0448891E0,1.2720389E0,1.0448891E0,3.5889668E0,1.0448891E0,5.0881557E0,2.0897782E0],"tree_param":{"num_deleted":"0","num_feature":"1568","num_nodes":"67","size_leaf_vector":"1"}},{"base_weights":[-3.018593E-1,-4.5463443E-1,1.0242578E1,-4.950973E-1,2.866212E0,6.823592E-2,4.128864E0,-5.062488E-1,3.397316E-1,1.5353082E0,-8.857863E-2,-1.5299468E-1,6.823592E-2],"categories":[],"categories_nodes":[],"categories_segments":[],"categories_sizes":[],"default_left":[0,0,0,0,0,0,0,0,0,0,0,0,0],"id":6,"left_children":[1,3,5,7,9,-1,-1,11,-1,-1,-1,-1,-1],"loss_changes":[4.4573972E2,3.7813972E1,1.3623569E2,5.44545E0,2.5767704E1,0E0,0E0,8.482208E-1,0E0,0E0,0E0,0E0,0E0],"parents":[2147483647,0,0,1,1,2,2,3,3,4,4,7,7],"right_children":[2,4,6,8,10,-1,-1,12,-1,-1,-1,-1,-1],"split_conditions":[4.91951E-1,4.19558E-1,1.22712E-1,2.86277E-1,2.5302E-1,6.823592E-2,4.128864E0,5.2967E-1,3.397316E-1,1.5353082E0,-8.857863E-2,-1.5299468E-1,6.823592E-2],"split_indices":[602,970,1040,978,72,0,0,314,0,0,0,0,0],"split_type":[0,0,0,0,0,0,0,0,0,0,0,0,0],"sum_hessian":[2.7280692E2,2.6985397E2,2.9529474E0,2.6744617E2,2.4077878E0,1.0448891E0,1.9080583E0,2.6631042E2,1.135749E0,1.0448891E0,1.3628988E0,2.6526553E2,1.0448891E0],"tree_param":{"num_deleted":"0","num_feature":"1568","num_nodes":"13","size_leaf_vector":"1"}},{"base_weights":[3.552721E-1,-3.256392E-1,3.9018626E0,-4.423922E-1,1.9784591E0,1.7242134E0,1.0359272E1,-4.816836E-1,5.8423185E-1,2.4994538E0,-4.566032E-2,5.036118E-1,6.013686E0,1.4058979E1,5.914562E-1,-4.908187E-1,1.47955E-1,2.4365466E0,-1.297678E-1,-1.338044E-1,3.1188396E-1,-2.5321725E-1,2.5144448E0,1.6243168E0,9.286201E0,6.281109E-1,4.9493136E0,-1.03126675E-1,5.083576E-1,-5.047123E-1,2.2423762E-1,-8.31639E-2,1.2418938E0,-4.3728817E-1,5.083576E-1,-7.657701E-2,1.9983951E0,-1.085066E-1,1.2418938E0,6.374903E-1,3.3458874E0,-1.5283689E-1,5.8799695E-2,3.6165038E-1,-1.12353034E-1,-1.4558019E-1,6.823592E-2,2.1494316E-1,-1.2107132E-1],"categories":[],"categories_nodes":[],"categories_segments":[],"categories_sizes":[],"default_left":[0,0,0,0,0,0,0,0,0,0,0,0,0,0,0,0,0,0,0,0,0,0,0,0,0,0,0,0,0,0,0,0,0,0,0,0,0,0,0,0,0,0,0,0,0,0,0,0,0],"id":7,"left_children":[1,3,5,7,9,11,13,15,17,-1,19,21,23,25,27,29,-1,31,-1,-1,-1,33,35,37,39,-1,-1,-1,-1,41,43,-1,-1,45,-1,47,-1,-1,-1,-1,-1,-1,-1,-1,-1,-1,-1,-1,-1],"loss_changes":[6.71048E2,6.3716476E1,6.1139825E2,9.282825E0,1.4760559E2,1.7846094E2,3.9229138E2,2.1609764E0,1.7397612E1,0E0,4.6683335E0,4.3364746E1,9.390292E1,1.9878918E2,4.800973E0,2.2389526E0,0E0,1.6057812E1,0E0,0E0,0E0,8.380108E0,8.398587E1,2.3740417E1,3.1573761E1,0E0,0E0,0E0,0E0,7.986183E-1,3.254391E0,0E0,0E0,7.566142E-1,0E0,1.7854865E0,0E0,0E0,0E0,0E0,0E0,0E0,0E0,0E0,0E0,0E0,0E0,0E0,0E0],"parents":[2147483647,0,0,1,1,2,2,3,3,4,4,5,5,6,6,7,7,8,8,10,10,11,11,12,12,13,13,14,14,15,15,17,17,21,21,22,22,23,23,24,24,29,29,30,30,33,33,35,35],"right_children":[2,4,6,8,10,12,14,16,18,-1,20,22,24,26,28,30,-1,32,-1,-1,-1,34,36,38,40,-1,-1,-1,-1,42,44,-1,-1,46,-1,48,-1,-1,-1,-1,-1,-1,-1,-1,-1,-1,-1,-1,-1],"split_conditions":[3.96331E-1,4.06587E-1,3.03544E-1,3.59444E-1,8.29388E-2,2.14996E-1,3.08561E-2,5.77816E-1,4.05947E-3,2.4994538E0,1.40323E-1,2.27855E-1,9.56263E-2,2.47574E-1,9.88757E-2,5.03967E-1,1.47955E-1,3.94189E-2,-1.297678E-1,-1.338044E-1,3.1188396E-1,2.28972E-1,2.89771E-2,4.0796E-1,4.32211E-1,6.281109E-1,4.9493136E0,-1.03126675E-1,5.083576E-1,4.27153E-1,6.30625E-2,-8.31639E-2,1.2418938E0,3.36454E-1,5.083576E-1,2.84343E-2,1.9983951E0,-1.085066E-1,1.2418938E0,6.374903E-1,3.3458874E0,-1.5283689E-1,5.8799695E-2,3.6165038E-1,-1.12353034E-1,-1.4558019E-1,6.823592E-2,2.1494316E-1,-1.2107132E-1],"split_indices":[559,552,783,559,561,788,580,683,759,0,567,826,1027,868,54,941,0,902,0,0,0,789,525,660,827,0,0,0,0,614,8,0,0,181,0,4,0,0,0,0,0,0,0,0,0,0,0,0,0],"split_type":[0,0,0,0,0,0,0,0,0,0,0,0,0,0,0,0,0,0,0,0,0,0,0,0,0,0,0,0,0,0,0,0,0,0,0,0,0,0,0,0,0,0,0,0,0,0,0,0,0],"sum_hessian":[2.7635043E2,2.326014E2,4.374905E1,2.221525E2,1.0448891E1,3.36636E1,1.0085451E1,2.1447484E2,7.6776633E0,1.7717685E0,8.677122E0,2.7076256E1,6.587344E0,6.996214E0,3.0892372E0,2.1297565E2,1.4991887E0,2.226068E0,5.4515953E0,6.769064E0,1.9080583E0,2.0307192E1,6.769064E0,3.452677E0,3.1346672E0,1.4991887E0,5.497025E0,2.0443482E0,1.0448891E0,2.0920497E2,3.7706866E0,1.1811789E0,1.0448891E0,1.9262302E1,1.0448891E0,4.770146E0,1.9989183E0,2.4077878E0,1.0448891E0,1.090319E0,2.0443482E0,2.0806921E2,1.135749E0,1.0448891E0,2.7257977E0,1.8217415E1,1.0448891E0,1.0448891E0,3.7252567E0],"tree_param":{"num_deleted":"0","num_feature":"1568","num_nodes":"49","size_leaf_vector":"1"}},{"base_weights":[2.9380363E-1,-3.3085585E-1,3.2787762E0,-4.283703E-1,2.1975694E0,1.5596358E0,1.1545844E1,-4.6362886E-1,1.2389587E0,1.8677386E0,1.7529553E-2,6.907236E-1,9.48365E0,3.0106774E-1,1.5413924E1,-4.817852E-1,3.7836346E-1,-1.1333429E-1,1.0951866E0,3.6165038E-1,-1.2609118E-1,1.541194E-1,4.150134E0,2.0693402E-1,3.777631E0,-7.847131E-2,2.1494316E-1,1.5322081E0,5.097994E0,-5.047107E-1,2.7079335E-1,-3.687529E-1,1.388412E0,6.5765533E0,-9.7242616E-2,-1.5283689E-1,6.341527E-2,-1.2695661E-1,5.742205E-1,-1.4665872E-1,1.6406327E-1,-1.2942779E-1,1.0393366E0,2.1494316E-1,2.6868603E0],"categories":[],"categories_nodes":[],"categories_segments":[],"categories_sizes":[],"default_left":[0,0,0,0,0,0,0,0,0,0,0,0,0,0,0,0,0,0,0,0,0,0,0,0,0,0,0,0,0,0,0,0,0,0,0,0,0,0,0,0,0,0,0,0,0],"id":8,"left_children":[1,3,5,7,9,11,13,15,17,-1,19,21,23,25,27,29,-1,-1,-1,-1,-1,31,33,-1,-1,-1,-1,-1,-1,35,37,39,41,43,-1,-1,-1,-1,-1,-1,-1,-1,-1,-1,-1],"loss_changes":[5.1602765E2,5.7473557E1,6.6252814E2,1.3602226E1,7.609543E1,2.743455E2,3.4711218E2,7.4267464E0,2.0334457E1,0E0,3.9568877E0,6.961094E1,9.936929E1,9.095694E-1,1.0833374E1,3.8668556E0,0E0,0E0,0E0,0E0,0E0,2.2326015E1,5.6883797E1,0E0,0E0,0E0,0E0,0E0,0E0,8.218727E-1,8.840941E0,2.9653559E0,4.028671E1,3.9837387E1,0E0,0E0,0E0,0E0,0E0,0E0,0E0,0E0,0E0,0E0,0E0],"parents":[2147483647,0,0,1,1,2,2,3,3,4,4,5,5,6,6,7,7,8,8,10,10,11,11,12,12,13,13,14,14,15,15,21,21,22,22,29,29,30,30,31,31,32,32,33,33],"right_children":[2,4,6,8,10,12,14,16,18,-1,20,22,24,26,28,30,-1,-1,-1,-1,-1,32,34,-1,-1,-1,-1,-1,-1,36,38,40,42,44,-1,-1,-1,-1,-1,-1,-1,-1,-1,-1,-1],"split_conditions":[3.87061E-1,4.12485E-1,2.55335E-1,3.95549E-1,1.53662E-2,2.94387E-1,7.37183E-2,6.96018E-1,2.56621E-1,1.8677386E0,1.25397E-1,3.28015E-1,5.72923E-2,5.8253E-2,3.84813E-2,3.7667E-1,3.7836346E-1,-1.1333429E-1,1.0951866E0,3.6165038E-1,-1.2609118E-1,3.38607E-1,1.3378E-1,2.0693402E-1,3.777631E0,-7.847131E-2,2.1494316E-1,1.5322081E0,5.097994E0,5.77707E-1,1.20141E-1,9.78467E-2,6.06226E-2,5.32584E-2,-9.7242616E-2,-1.5283689E-1,6.341527E-2,-1.2695661E-1,5.742205E-1,-1.4665872E-1,1.6406327E-1,-1.2942779E-1,1.0393366E0,2.1494316E-1,2.6868603E0],"split_indices":[559,604,793,1164,1196,1325,999,1422,552,0,251,604,1031,0,1032,812,0,0,0,0,0,812,595,0,0,0,0,0,0,441,670,1032,1031,465,0,0,0,0,0,0,0,0,0,0,0],"split_type":[0,0,0,0,0,0,0,0,0,0,0,0,0,0,0,0,0,0,0,0,0,0,0,0,0,0,0,0,0,0,0,0,0,0,0,0,0,0,0,0,0,0,0,0,0],"sum_hessian":[2.7516928E2,2.2828555E2,4.688372E1,2.2060788E2,7.6776633E0,3.9796646E1,7.087074E0,2.1674634E2,3.8615465E0,2.0443482E0,5.633315E0,3.6843697E1,2.9529474E0,2.0897782E0,4.9972954E0,2.1520172E2,1.5446186E0,2.8166575E0,1.0448891E0,1.0448891E0,4.588426E0,3.280043E1,4.0432663E0,1.090319E0,1.8626283E0,1.0448891E0,1.0448891E0,1.2266089E0,3.7706866E0,2.0915953E2,6.042185E0,2.3532719E1,9.267712E0,2.316928E0,1.7263385E0,2.0806921E2,1.090319E0,4.770146E0,1.2720389E0,2.1215792E1,2.316928E0,5.3607354E0,3.9069765E0,1.0448891E0,1.2720389E0],"tree_param":{"num_deleted":"0","num_feature":"1568","num_nodes":"45","size_leaf_vector":"1"}},{"base_weights":[3.6534387E-1,-3.3443993E-1,5.8669996E0,-4.9688563E-1,2.7664232E0,9.511489E-1,1.36748295E1,-1.5290654E-1,3.9742333E-1,6.557683E-1,7.923327E0,-2.1307728E-1,2.543662E0,1.755366E1,1.3884252E0,-9.905933E-2,3.6165038E-1,-1.1345647E-1,1.0951866E0,3.3323343E0,6.823592E-2,-1.447456E-1,6.550648E-1,1.388601E0,5.6010275E0,-1.00762516E-1,9.484793E-1,-1.338044E-1,3.6165038E-1],"categories":[],"categories_nodes":[],"categories_segments":[],"categories_sizes":[],"default_left":[0,0,0,0,0,0,0,0,0,0,0,0,0,0,0,0,0,0,0,0,0,0,0,0,0,0,0,0,0],"id":9,"left_children":[1,3,5,7,9,11,13,-1,15,17,19,21,-1,23,25,-1,-1,27,-1,-1,-1,-1,-1,-1,-1,-1,-1,-1,-1],"loss_changes":[1.0618822E3,1.2488019E2,1.1814471E3,2.8798141E0,1.2930855E2,1.7858868E2,5.45062E2,0E0,2.6688628E0,2.3126154E1,8.321542E1,1.2962992E1,0E0,4.338867E1,1.3147965E1,0E0,0E0,4.403737E0,0E0,0E0,0E0,0E0,0E0,0E0,0E0,0E0,0E0,0E0,0E0],"parents":[2147483647,0,0,1,1,2,2,3,3,4,4,5,5,6,6,8,8,9,9,10,10,11,11,13,13,14,14,17,17],"right_children":[2,4,6,8,10,12,14,-1,16,18,20,22,-1,24,26,-1,-1,28,-1,-1,-1,-1,-1,-1,-1,-1,-1,-1,-1],"split_conditions":[2.95988E-1,2.84344E-1,7.10772E-2,2.59319E-1,2.72115E-1,4.01081E-1,6.30353E-2,-1.5290654E-1,8.91365E-2,1.14469E-1,3.7048E-2,2.69979E-1,2.543662E0,1.84814E-1,5.39623E-3,-9.905933E-2,3.6165038E-1,2.94687E-1,1.0951866E0,3.3323343E0,6.823592E-2,-1.447456E-1,6.550648E-1,1.388601E0,5.6010275E0,-1.00762516E-1,9.484793E-1,-1.338044E-1,3.6165038E-1],"split_indices":[1020,1003,781,1011,867,513,567,0,13,1333,997,529,0,820,331,0,0,23,0,0,0,0,0,0,0,0,0,0,0],"split_type":[0,0,0,0,0,0,0,0,0,0,0,0,0,0,0,0,0,0,0,0,0,0,0,0,0,0,0,0,0],"sum_hessian":[2.743061E2,2.4418604E2,3.0120064E1,2.3282854E2,1.135749E1,1.9171444E1,1.0948621E1,2.2996646E2,2.8620875E0,8.858842E0,2.4986477E0,1.7445105E1,1.7263385E0,7.995673E0,2.9529474E0,1.8171984E0,1.0448891E0,7.813953E0,1.0448891E0,1.4537587E0,1.0448891E0,1.6400215E1,1.0448891E0,1.0448891E0,6.9507837E0,1.9080583E0,1.0448891E0,6.769064E0,1.0448891E0],"tree_param":{"num_deleted":"0","num_feature":"1568","num_nodes":"29","size_leaf_vector":"1"}},{"base_weights":[6.918839E-1,-3.1338063E-1,7.6306925E0,-4.5801902E-1,3.8547585E0,4.014835E-2,1.7865452E1,-4.792138E-1,1.1055388E0,-3.5300158E-2,8.165243E0,-1.4578271E-1,1.4634593E0,5.758956E0,6.823592E-2,-4.9209717E-1,1.9774573E-1,6.550648E-1,-8.857863E-2,-1.172277E-1,2.1494316E-1,3.3085816E0,6.823592E-2,-1.528756E-1,4.6010833E-2,-1.3176408E-1,5.083576E-1],"categories":[],"categories_nodes":[],"categories_segments":[],"categories_sizes":[],"default_left":[0,0,0,0,0,0,0,0,0,0,0,0,0,0,0,0,0,0,0,0,0,0,0,0,0,0,0],"id":10,"left_children":[1,3,5,7,9,11,13,15,17,19,21,-1,-1,-1,-1,23,-1,-1,-1,-1,-1,-1,-1,-1,25,-1,-1],"loss_changes":[1.9059493E3,1.4604843E2,2.685149E3,8.224506E0,1.3665436E2,5.5446396E1,3.412173E2,3.6943932E0,5.7907457E0,1.6883616E0,8.5272E1,0E0,0E0,0E0,0E0,2.1670341E0,0E0,0E0,0E0,0E0,0E0,0E0,0E0,0E0,7.2131047E0,0E0,0E0],"parents":[2147483647,0,0,1,1,2,2,3,3,4,4,5,5,6,6,7,7,8,8,9,9,10,10,15,15,24,24],"right_children":[2,4,6,8,10,12,14,16,18,20,22,-1,-1,-1,-1,24,-1,-1,-1,-1,-1,-1,-1,-1,26,-1,-1],"split_conditions":[2.54303E-1,2.37225E-1,1.58757E-1,2.23589E-1,1.27298E-1,2.61233E-2,5.91967E-2,5.54711E-1,7.34407E-2,1.60277E-1,1.19836E-1,-1.4578271E-1,1.4634593E0,5.758956E0,6.823592E-2,3.65994E-1,1.9774573E-1,6.550648E-1,-8.857863E-2,-1.172277E-1,2.1494316E-1,3.3085816E0,6.823592E-2,-1.528756E-1,5.36006E-1,-1.3176408E-1,5.083576E-1],"split_indices":[1020,1004,791,1020,740,517,753,1014,212,17,1274,0,0,0,0,795,0,0,0,0,0,0,0,0,281,0,0],"split_type":[0,0,0,0,0,0,0,0,0,0,0,0,0,0,0,0,0,0,0,0,0,0,0,0,0,0,0],"sum_hessian":[2.7189832E2,2.3832558E2,3.357274E1,2.3119307E2,7.1325035E0,1.9852892E1,1.3719848E1,2.2878528E2,2.4077878E0,4.2704163E0,2.8620875E0,1.8717144E1,1.135749E0,1.2674959E1,1.0448891E0,2.2678636E2,1.9989183E0,1.0448891E0,1.3628988E0,3.225527E0,1.0448891E0,1.8171984E0,1.0448891E0,2.1969928E2,7.087074E0,6.042185E0,1.0448891E0],"tree_param":{"num_deleted":"0","num_feature":"1568","num_nodes":"27","size_leaf_vector":"1"}},{"base_weights":[1.9884709E-1,-4.9528039E-1,2.5077987E0,-1.5284085E-1,3.6165038E-1,4.0980816E-1,8.634318E0,-1.1079592E-1,4.3714123E0,1.0102593E0,1.29402685E1,-3.034946E-1,1.9803033E0,2.788812E0,3.3747548E-1,-1.2736921E-1,1.388601E0,1.5413314E1,2.2429547E0,-4.7365254E-1,8.188565E-1,-9.816586E-2,1.2418938E0,3.6165038E-1,-1.0386838E-1,5.0743613E0,8.0177206E-1,-7.847131E-2,1.0951866E0,-1.4958048E-1,6.823592E-2],"categories":[],"categories_nodes":[],"categories_segments":[],"categories_sizes":[],"default_left":[0,0,0,0,0,0,0,0,0,0,0,0,0,0,0,0,0,0,0,0,0,0,0,0,0,0,0,0,0,0,0],"id":11,"left_children":[1,3,5,-1,-1,7,9,11,13,15,17,19,21,-1,23,-1,-1,25,27,29,-1,-1,-1,-1,-1,-1,-1,-1,-1,-1,-1],"loss_changes":[4.398558E2,5.712181E0,8.116329E2,0E0,0E0,1.0008429E2,5.163959E2,1.8193386E1,1.0878296E2,3.781905E1,2.3585864E2,2.2371105E1,2.0371956E1,0E0,2.871188E0,0E0,0E0,1.1034253E2,1.1848028E1,8.047676E-1,0E0,0E0,0E0,0E0,0E0,0E0,0E0,0E0,0E0,0E0,0E0],"parents":[2147483647,0,0,1,1,2,2,5,5,6,6,7,7,8,8,9,9,10,10,11,11,12,12,14,14,17,17,18,18,19,19],"right_children":[2,4,6,-1,-1,8,10,12,14,16,18,20,22,-1,24,-1,-1,26,28,30,-1,-1,-1,-1,-1,-1,-1,-1,-1,-1,-1],"split_conditions":[2.43123E-1,4.59918E-1,2.18353E-1,-1.5284085E-1,3.6165038E-1,3.56351E-1,1.20048E-2,2.28972E-1,3.94526E-2,1.02701E-1,8.94082E-2,1.65331E-1,1.59951E-1,2.788812E0,5.22765E-2,-1.2736921E-1,1.388601E0,4.94769E-2,1.10366E-1,2.68096E-1,8.188565E-1,-9.816586E-2,1.2418938E0,3.6165038E-1,-1.0386838E-1,5.0743613E0,8.0177206E-1,-7.847131E-2,1.0951866E0,-1.4958048E-1,6.823592E-2],"split_indices":[377,1230,1007,0,0,568,1042,789,760,1033,809,711,599,0,19,0,0,379,58,38,0,0,0,0,0,0,0,0,0,0,0],"split_type":[0,0,0,0,0,0,0,0,0,0,0,0,0,0,0,0,0,0,0,0,0,0,0,0,0,0,0,0,0,0,0],"sum_hessian":[2.7267062E2,2.1024985E2,6.2420765E1,2.0920497E2,1.0448891E0,4.7292587E1,1.5128177E1,4.2658733E1,4.633856E0,5.9058948E0,9.222281E0,3.9842075E1,2.8166575E0,1.4991887E0,3.1346672E0,4.861006E0,1.0448891E0,7.1325035E0,2.0897782E0,3.8524605E1,1.3174689E0,1.7717685E0,1.0448891E0,1.0448891E0,2.0897782E0,6.0876145E0,1.0448891E0,1.0448891E0,1.0448891E0,3.7479717E1,1.0448891E0],"tree_param":{"num_deleted":"0","num_feature":"1568","num_nodes":"31","size_leaf_vector":"1"}},{"base_weights":[7.003491E-1,-2.9764557E-1,1.5143065E1,-4.3874833E-1,4.814838E0,1.1912131E0,1.9082394E1,-4.9396163E-1,1.5273126E0,-1.2468207E-1,3.974152E0,-1.1472159E-1,1.0951866E0,5.946558E0,1.5353082E0,-5.0586486E-1,3.397316E-1,-1.5295537E-1,6.823592E-2],"categories":[],"categories_nodes":[],"categories_segments":[],"categories_sizes":[],"default_left":[0,0,0,0,0,0,0,0,0,0,0,0,0,0,0,0,0,0,0],"id":12,"left_children":[1,3,5,7,9,11,13,15,-1,-1,-1,-1,-1,-1,-1,17,-1,-1,-1],"loss_changes":[3.9818694E3,1.8901454E2,9.585691E2,7.977408E1,3.1610025E2,2.0738497E1,4.164746E1,5.4409065E0,0E0,0E0,0E0,0E0,0E0,0E0,0E0,8.4770966E-1,0E0,0E0,0E0],"parents":[2147483647,0,0,1,1,2,2,3,3,4,4,5,5,6,6,7,7,15,15],"right_children":[2,4,6,8,10,12,14,16,-1,-1,-1,-1,-1,-1,-1,18,-1,-1,-1],"split_conditions":[2.03506E-1,2.37998E-1,2.99041E-1,2.59916E-1,1.07867E-1,1.60746E-1,1.10057E-1,3.73289E-1,1.5273126E0,-1.2468207E-1,3.974152E0,-1.1472159E-1,1.0951866E0,5.946558E0,1.5353082E0,4.29197E-1,3.397316E-1,-1.5295537E-1,6.823592E-2],"split_indices":[1266,581,605,322,734,298,531,1237,0,0,0,0,0,0,0,1265,0,0,0],"split_type":[0,0,0,0,0,0,0,0,0,0,0,0,0,0,0,0,0,0,0],"sum_hessian":[2.749421E2,2.5808762E2,1.6854515E1,2.5204541E2,6.042185E0,3.9978366E0,1.2856679E1,2.5045537E2,1.5900486E0,4.315846E0,1.7263385E0,2.9529474E0,1.0448891E0,1.18117895E1,1.0448891E0,2.4931963E2,1.135749E0,2.4827473E2,1.0448891E0],"tree_param":{"num_deleted":"0","num_feature":"1568","num_nodes":"19","size_leaf_vector":"1"}},{"base_weights":[7.740984E-1,-3.1850404E-1,1.914397E1,-4.4035405E-1,8.903054E0,1.0951866E0,6.003549E0,-5.0209606E-1,4.03065E0,3.7717946E0,6.823592E-2,-1.529693E-1,2.1494316E-1,-9.427856E-2,2.2688444E0],"categories":[],"categories_nodes":[],"categories_segments":[],"categories_sizes":[],"default_left":[0,0,0,0,0,0,0,0,0,0,0,0,0,0,0],"id":13,"left_children":[1,3,5,7,9,-1,-1,11,13,-1,-1,-1,-1,-1,-1],"loss_changes":[5.539052E3,2.9739172E2,1.3525244E2,7.344428E1,1.0707672E2,0E0,0E0,2.7999191E0,5.8161896E1,0E0,0E0,0E0,0E0,0E0,0E0],"parents":[2147483647,0,0,1,1,2,2,3,3,4,4,7,7,8,8],"right_children":[2,4,6,8,10,-1,-1,12,14,-1,-1,-1,-1,-1,-1],"split_conditions":[4.25709E-1,4.27874E-1,7.90911E-2,3.40426E-1,2.48578E-1,1.0951866E0,6.003549E0,4.90304E-1,1.25208E-1,3.7717946E0,6.823592E-2,-1.529693E-1,2.1494316E-1,-9.427856E-2,2.2688444E0],"split_indices":[526,598,270,1209,573,0,0,558,318,0,0,0,0,0,0],"split_type":[0,0,0,0,0,0,0,0,0,0,0,0,0,0,0],"sum_hessian":[2.7466953E2,2.6017737E2,1.4492157E1,2.5772415E2,2.4532177E0,1.0448891E0,1.34472685E1,2.5508922E2,2.6349378E0,1.4083288E0,1.0448891E0,2.5404434E2,1.0448891E0,1.5900486E0,1.0448891E0],"tree_param":{"num_deleted":"0","num_feature":"1568","num_nodes":"15","size_leaf_vector":"1"}},{"base_weights":[-1.0924981E-1,-2.7913502E-1,9.021362E0,-3.7477887E-1,3.114121E0,-9.905933E-2,4.2950244E0,-4.2248863E-1,2.618469E0,-1.2796466E-1,3.0330758E0,-4.4487825E-1,5.751261E-1,-1.066292E-1,1.8287226E0,-4.822826E-1,6.994703E-1,-1.4702383E-1,2.1494316E-1,-1.3217811E-1,1.1082667E0],"categories":[],"categories_nodes":[],"categories_segments":[],"categories_sizes":[],"default_left":[0,0,0,0,0,0,0,0,0,0,0,0,0,0,0,0,0,0,0,0,0],"id":14,"left_children":[1,3,5,7,9,-1,-1,11,13,-1,-1,15,-1,-1,-1,17,19,-1,-1,-1,-1],"loss_changes":[4.3209772E2,8.9719894E1,2.5672018E2,3.913088E1,1.9225859E2,0E0,0E0,1.4626732E1,4.6802643E1,0E0,0E0,1.1520569E1,0E0,0E0,0E0,2.7213135E0,3.1255005E1,0E0,0E0,0E0,0E0],"parents":[2147483647,0,0,1,1,2,2,3,3,4,4,7,7,8,8,11,11,15,15,16,16],"right_children":[2,4,6,8,10,-1,-1,12,14,-1,-1,16,-1,-1,-1,18,20,-1,-1,-1,-1],"split_conditions":[4.65194E-1,4.57041E-1,1.13978E-1,2.10581E-1,2.71852E-1,-9.905933E-2,4.2950244E0,6.13521E-1,5.61063E-2,-1.2796466E-1,3.0330758E0,3.69461E-1,5.751261E-1,-1.066292E-1,1.8287226E0,3.71171E-1,3.34159E-2,-1.4702383E-1,2.1494316E-1,-1.3217811E-1,1.1082667E0],"split_indices":[622,783,539,842,539,0,0,1389,341,0,0,622,0,0,0,6,371,0,0,0,0],"split_type":[0,0,0,0,0,0,0,0,0,0,0,0,0,0,0,0,0,0,0,0,0],"sum_hessian":[2.759416E2,2.7185287E2,4.0886965E0,2.6526553E2,6.587344E0,1.8171984E0,2.271498E0,2.6194916E2,3.3163872E0,4.9972954E0,1.5900486E0,2.6026825E2,1.6809086E0,2.271498E0,1.0448891E0,2.5259058E2,7.6776633E0,2.5154568E2,1.0448891E0,6.1784744E0,1.4991887E0],"tree_param":{"num_deleted":"0","num_feature":"1568","num_nodes":"21","size_leaf_vector":"1"}},{"base_weights":[-1.3750991E-1,-3.364307E-1,3.9647188E0,-4.2051715E-1,6.1222343E0,-4.462594E-1,7.6484466E-1,2.9509404E0,-8.5979536E-2,-4.906193E-1,9.076517E-1,-4.982854E-1,2.0693402E-1,1.405008E0,-1.328343E-1,-1.5180281E-1,1.593308E-1],"categories":[],"categories_nodes":[],"categories_segments":[],"categories_sizes":[],"default_left":[0,0,0,0,0,0,0,0,0,0,0,0,0,0,0,0,0],"id":15,"left_children":[1,3,-1,5,7,9,-1,-1,-1,11,13,15,-1,-1,-1,-1,-1],"loss_changes":[7.317421E2,1.4962218E2,0E0,2.1644295E1,8.718198E1,1.6467052E1,0E0,0E0,0E0,2.6869774E0,4.7014633E1,2.318962E0,0E0,0E0,0E0,0E0,0E0],"parents":[2147483647,0,0,1,1,3,3,4,4,5,5,9,9,10,10,11,11],"right_children":[2,4,-1,6,8,10,-1,-1,-1,12,14,16,-1,-1,-1,-1,-1],"split_conditions":[6.20089E-1,6.07921E-1,3.9647188E0,6.11433E-1,1.24315E-1,5.03324E-1,7.6484466E-1,2.9509404E0,-8.5979536E-2,3.73504E-1,1.12146E-2,3.20667E-1,2.0693402E-1,1.405008E0,-1.328343E-1,-1.5180281E-1,1.593308E-1],"split_indices":[1049,590,0,1050,505,756,0,0,0,512,1011,656,0,0,0,0,0],"split_type":[0,0,0,0,0,0,0,0,0,0,0,0,0,0,0,0,0],"sum_hessian":[2.7280692E2,2.697631E2,3.0438073E0,2.6721902E2,2.5440779E0,2.6576526E2,1.4537587E0,1.2720389E0,1.2720389E0,2.5795132E2,7.813953E0,2.56861E2,1.090319E0,1.4083288E0,6.4056244E0,2.5545267E2,1.4083288E0],"tree_param":{"num_deleted":"0","num_feature":"1568","num_nodes":"17","size_leaf_vector":"1"}},{"base_weights":[-3.280349E-1,-4.6534345E-1,4.9923477E0,-4.9123573E-1,5.866762E-1,-3.0367298E-9,3.3915284E0,-5.0619346E-1,3.0472443E-1,2.1494316E-1,-1.13807596E-1,-1.5298861E-1,5.0133597E-2],"categories":[],"categories_nodes":[],"categories_segments":[],"categories_sizes":[],"default_left":[0,0,0,0,0,0,0,0,0,0,0,0,0],"id":16,"left_children":[1,3,5,7,-1,9,-1,11,-1,-1,-1,-1,-1],"loss_changes":[2.0301216E2,1.780487E1,2.2050569E2,6.525284E0,0E0,1.6055268E0,0E0,7.5691986E-1,0E0,0E0,0E0,0E0,0E0],"parents":[2147483647,0,0,1,1,2,2,3,3,5,5,7,7],"right_children":[2,4,6,8,-1,10,-1,12,-1,-1,-1,-1,-1],"split_conditions":[2.89145E-1,5.05179E-1,1.57424E-1,4.34588E-1,5.866762E-1,4.34025E-2,3.3915284E0,5.63127E-1,3.0472443E-1,2.1494316E-1,-1.13807596E-1,-1.5298861E-1,5.0133597E-2],"split_indices":[996,764,1042,787,0,9,0,668,0,0,0,0,0],"split_type":[0,0,0,0,0,0,0,0,0,0,0,0,0],"sum_hessian":[2.737155E2,2.6771875E2,5.9967546E0,2.656744E2,2.0443482E0,3.9069765E0,2.0897782E0,2.6372092E2,1.9534882E0,1.0448891E0,2.8620875E0,2.624943E2,1.2266089E0],"tree_param":{"num_deleted":"0","num_feature":"1568","num_nodes":"13","size_leaf_vector":"1"}},{"base_weights":[1.1783606E-1,1.5023387E1,-4.6434644E-1,-1.01574816E-1,5.602056E0,-5.0229883E-1,1.0640008E0,1.4257175E-1,-1.5298067E-1],"categories":[],"categories_nodes":[],"categories_segments":[],"categories_sizes":[],"default_left":[0,0,0,0,0,0,0,0,0],"id":17,"left_children":[1,3,5,-1,-1,7,-1,-1,-1],"loss_changes":[2.370389E3,5.8206616E2,4.1830387E1,0E0,0E0,2.1944427E0,0E0,0E0,0E0],"parents":[2147483647,0,0,1,1,2,2,5,5],"right_children":[2,4,6,-1,-1,8,-1,-1,-1],"split_conditions":[6.93417E-4,5.96389E-2,2.80882E-1,-1.01574816E-1,5.602056E0,2.76337E-4,1.0640008E0,1.4257175E-1,-1.5298067E-1],"split_indices":[792,1220,1219,0,0,783,0,0,0],"split_type":[0,0,0,0,0,0,0,0,0],"sum_hessian":[2.7135315E2,9.267712E0,2.6208545E2,1.9534882E0,7.314224E0,2.604954E2,1.5900486E0,1.5446186E0,2.5895078E2],"tree_param":{"num_deleted":"0","num_feature":"1568","num_nodes":"9","size_leaf_vector":"1"}},{"base_weights":[1.9091356E-1,-1.261821E-1,7.201245E0,-2.750688E-1,5.3828435E0,4.275279E-1,4.979364E0,1.391512E0,-4.544652E-1,-2.1211797E-1,3.8990805E0,-1.3147904E-1,9.484793E-1,9.434963E0,-5.11893E-3,-4.753747E-1,1.1966472E0,6.823592E-2,-1.15163E-1,3.6165038E-1,3.644039E0,-3.9222863E-1,8.930967E-1,-4.8811513E-1,3.010502E-1,6.550648E-1,-8.31639E-2,2.1494316E-1,-1.4587143E-1,-1.5028223E-1,1.3994275E-1],"categories":[],"categories_nodes":[],"categories_segments":[],"categories_sizes":[],"default_left":[0,0,0,0,0,0,0,0,0,0,0,0,0,0,0,0,0,0,0,0,0,0,0,0,0,0,0,0,0,0,0],"id":18,"left_children":[1,3,5,7,9,11,-1,13,15,17,-1,-1,-1,19,21,23,25,-1,-1,-1,-1,27,-1,29,-1,-1,-1,-1,-1,-1,-1],"loss_changes":[6.1613074E2,2.1946722E2,7.563269E2,7.828421E1,3.0275778E2,2.031372E1,0E0,2.8635965E2,8.690151E0,4.6808124E-1,0E0,0E0,0E0,6.9519226E1,2.7390524E1,4.8801003E0,5.297805E0,0E0,0E0,0E0,0E0,2.5360553E0,0E0,3.0703392E0,0E0,0E0,0E0,0E0,0E0,0E0,0E0],"parents":[2147483647,0,0,1,1,2,2,3,3,4,4,5,5,7,7,8,8,9,9,13,13,14,14,15,15,16,16,21,21,23,23],"right_children":[2,4,6,8,10,12,-1,14,16,18,-1,-1,-1,20,22,24,26,-1,-1,-1,-1,28,-1,30,-1,-1,-1,-1,-1,-1,-1],"split_conditions":[5.20414E-1,5.38917E-1,2.05099E-1,1.83974E-2,2.7161E-1,1.01521E-1,4.979364E0,8.29872E-3,5.86806E-1,6.95929E-2,3.8990805E0,-1.3147904E-1,9.484793E-1,7.19669E-2,1.6416E-1,5.41289E-1,7.59288E-2,6.823592E-2,-1.15163E-1,3.6165038E-1,3.644039E0,6.4439E-3,8.930967E-1,2.1993E-1,3.010502E-1,6.550648E-1,-8.31639E-2,2.1494316E-1,-1.4587143E-1,-1.5028223E-1,1.3994275E-1],"split_indices":[577,1054,775,1081,807,751,0,795,223,0,0,0,0,751,775,1262,3,0,0,0,0,146,0,1477,0,0,0,0,0,0,0],"split_type":[0,0,0,0,0,0,0,0,0,0,0,0,0,0,0,0,0,0,0,0,0,0,0,0,0,0,0,0,0,0,0],"sum_hessian":[2.7575986E2,2.647658E2,1.099405E1,2.5872363E2,6.042185E0,6.996214E0,3.9978366E0,2.4486748E1,2.3423688E2,4.0432663E0,1.9989183E0,5.951325E0,1.0448891E0,2.7712276E0,2.171552E1,2.320108E2,2.226068E0,1.0448891E0,2.9983773E0,1.0448891E0,1.7263385E0,1.9989182E1,1.7263385E0,2.3069333E2,1.3174689E0,1.0448891E0,1.1811789E0,1.0448891E0,1.8944294E1,2.2810384E2,2.5895078E0],"tree_param":{"num_deleted":"0","num_feature":"1568","num_nodes":"31","size_leaf_vector":"1"}},{"base_weights":[-4.1144222E-1,-4.9461147E-1,1.1738338E0,5.88356E-2,-1.5296683E-1,-1.414991E-1,3.0142825E0,-1.3118646E-1,5.083576E-1],"categories":[],"categories_nodes":[],"categories_segments":[],"categories_sizes":[],"default_left":[0,0,0,0,0,0,0,0,0],"id":19,"left_children":[1,3,5,7,-1,-1,-1,-1,-1],"loss_changes":[3.668698E1,2.2360916E0,2.0839786E2,7.1562266E0,0E0,0E0,0E0,0E0,0E0],"parents":[2147483647,0,0,1,1,2,2,3,3],"right_children":[2,4,6,8,-1,-1,-1,-1,-1],"split_conditions":[2.35248E-1,1.27063E-4,2.59011E-1,2.90561E-1,-1.5296683E-1,-1.414991E-1,3.0142825E0,-1.3118646E-1,5.083576E-1],"split_indices":[1005,1026,1039,797,0,0,0,0,0],"split_type":[0,0,0,0,0,0,0,0,0],"sum_hessian":[2.7285233E2,2.5990482E2,1.2947538E1,6.905354E0,2.5299945E2,1.172093E1,1.2266089E0,5.860465E0,1.0448891E0],"tree_param":{"num_deleted":"0","num_feature":"1568","num_nodes":"9","size_leaf_vector":"1"}},{"base_weights":[-2.8344664E-1,-4.09071E-1,4.4985123E0,-4.7062263E-1,7.477534E-1,-1.24433056E-1,3.628048E0,-4.8613364E-1,3.0472443E-1,-1.4162707E-1,2.4155514E0,-4.9789545E-1,1.9774573E-1,-5.0582737E-1,1.0556073E-1,-1.5295142E-1,6.341527E-2],"categories":[],"categories_nodes":[],"categories_segments":[],"categories_sizes":[],"default_left":[0,0,0,0,0,0,0,0,0,0,0,0,0,0,0,0,0],"id":20,"left_children":[1,3,5,7,9,-1,-1,11,-1,-1,-1,13,-1,15,-1,-1,-1],"loss_changes":[1.662152E2,1.9401768E1,2.6949988E2,6.364441E0,1.2766677E2,0E0,0E0,3.7319756E0,0E0,0E0,0E0,1.8676643E0,0E0,8.2336426E-1,0E0,0E0,0E0],"parents":[2147483647,0,0,1,1,2,2,3,3,4,4,7,7,11,11,13,13],"right_children":[2,4,6,8,10,-1,-1,12,-1,-1,-1,14,-1,16,-1,-1,-1],"split_conditions":[4.5481E-1,2.20579E-1,3.39858E-1,5.54457E-1,3.15745E-1,-1.24433056E-1,3.628048E0,3.45585E-1,3.0472443E-1,-1.4162707E-1,2.4155514E0,6.68932E-1,1.9774573E-1,5.35771E-1,1.0556073E-1,-1.5295142E-1,6.341527E-2],"split_indices":[795,802,1022,891,1262,0,0,623,0,0,0,377,0,1246,0,0,0],"split_type":[0,0,0,0,0,0,0,0,0,0,0,0,0,0,0,0,0],"sum_hessian":[2.7262518E2,2.6653757E2,6.0876145E0,2.5363547E2,1.2902108E1,4.2704163E0,1.8171984E0,2.5168198E2,1.9534882E0,1.185722E1,1.0448891E0,2.4968306E2,1.9989183E0,2.47775E2,1.9080583E0,2.4668468E2,1.090319E0],"tree_param":{"num_deleted":"0","num_feature":"1568","num_nodes":"17","size_leaf_vector":"1"}},{"base_weights":[-3.638486E-1,-4.8224542E-1,1.0575467E0,-5.016883E-1,1.4387749E-1,-1.0763455E-1,6.5181417E0,-1.5294112E-1,2.6672256E-1,-1.3257672E-1,6.374903E-1,-3.6866617E-1,6.550648E-1,2.1549385E-2,3.3553436E0,2.1494316E-1,-8.31639E-2,-1.4425935E-1,2.1494316E-1],"categories":[],"categories_nodes":[],"categories_segments":[],"categories_sizes":[],"default_left":[0,0,0,0,0,0,0,0,0,0,0,0,0,0,0,0,0,0,0],"id":21,"left_children":[1,3,5,7,9,11,13,-1,15,-1,-1,17,-1,-1,-1,-1,-1,-1,-1],"loss_changes":[4.6558014E1,3.1554298E0,1.3655942E2,1.6691971E0,1.0693358E1,1.1918003E1,1.1263759E2,0E0,9.878341E-1,0E0,0E0,2.4796193E0,0E0,0E0,0E0,0E0,0E0,0E0,0E0],"parents":[2147483647,0,0,1,1,2,2,3,3,4,4,5,5,6,6,8,8,11,11],"right_children":[2,4,6,8,10,12,14,-1,16,-1,-1,18,-1,-1,-1,-1,-1,-1,-1],"split_conditions":[1.33119E-1,1.14594E-1,2.07457E-1,3.18342E-1,6.37092E-2,2.35838E-1,8.32625E-2,-1.5294112E-1,9.60276E-2,-1.3257672E-1,6.374903E-1,2.50002E-1,6.550648E-1,2.1549385E-2,3.3553436E0,2.1494316E-1,-8.31639E-2,-1.4425935E-1,2.1494316E-1],"split_indices":[362,362,819,161,516,1079,1063,0,11,0,0,554,0,0,0,0,0,0,0],"split_type":[0,0,0,0,0,0,0,0,0,0,0,0,0,0,0,0,0,0,0],"sum_hessian":[2.7262518E2,2.5227257E2,2.0352623E1,2.4486748E2,7.4050837E0,1.7581394E1,2.7712276E0,2.4264142E2,2.226068E0,6.3147645E0,1.090319E0,1.6536505E1,1.0448891E0,1.5900486E0,1.1811789E0,1.0448891E0,1.1811789E0,1.5491616E1,1.0448891E0],"tree_param":{"num_deleted":"0","num_feature":"1568","num_nodes":"19","size_leaf_vector":"1"}},{"base_weights":[-3.0147526E-1,-4.0267122E-1,6.383911E0,-4.799207E-1,3.7535658E0,3.4078882E0,7.429449E-3,-4.9851656E-1,6.32566E-1,-1.1472159E-1,2.9337907E0,-5.0610286E-1,1.22832775E-1,-1.1284957E-1,6.550648E-1,-1.5297964E-1,6.341527E-2],"categories":[],"categories_nodes":[],"categories_segments":[],"categories_sizes":[],"default_left":[0,0,0,0,0,0,0,0,0,0,0,0,0,0,0,0,0],"id":22,"left_children":[1,3,5,7,9,-1,-1,11,13,-1,-1,15,-1,-1,-1,-1,-1],"loss_changes":[1.8747227E2,8.854491E1,1.3054495E2,5.8209267E0,1.2942928E2,0E0,0E0,2.0140533E0,8.356313E0,0E0,0E0,8.2373047E-1,0E0,0E0,0E0,0E0,0E0],"parents":[2147483647,0,0,1,1,2,2,3,3,4,4,7,7,8,8,11,11],"right_children":[2,4,6,8,10,-1,-1,12,14,-1,-1,16,-1,-1,-1,-1,-1],"split_conditions":[5.51358E-1,5.07635E-1,2.8697E-2,3.31811E-1,1.45439E-1,3.4078882E0,7.429449E-3,5.04411E-1,8.14896E-2,-1.1472159E-1,2.9337907E0,4.57728E-1,1.22832775E-1,-1.1284957E-1,6.550648E-1,-1.5297964E-1,6.341527E-2],"split_indices":[790,769,598,768,811,0,0,790,78,0,0,500,0,0,0,0,0],"split_type":[0,0,0,0,0,0,0,0,0,0,0,0,0,0,0,0,0],"sum_hessian":[2.723072E2,2.6917252E2,3.1346672E0,2.6512924E2,4.0432663E0,1.3174689E0,1.8171984E0,2.6131314E2,3.8161166E0,2.9529474E0,1.090319E0,2.595868E2,1.7263385E0,2.7712276E0,1.0448891E0,2.5849646E2,1.090319E0],"tree_param":{"num_deleted":"0","num_feature":"1568","num_nodes":"17","size_leaf_vector":"1"}},{"base_weights":[-2.5291988E-1,-4.2255038E-1,2.9549725E0,2.416604E0,-4.600439E-1,-1.3966101E-1,1.1760432E1,-9.321998E-2,1.388601E0,-4.8268566E-1,9.505648E-1,8.0177206E-1,4.2320256E0,2.0314963E-1,-4.942204E-1,8.0177206E-1,-1.085066E-1,5.9224623E-1,-5.059278E-1,-8.1666246E-2,3.6165038E-1,-1.529618E-1,6.823592E-2],"categories":[],"categories_nodes":[],"categories_segments":[],"categories_sizes":[],"default_left":[0,0,0,0,0,0,0,0,0,0,0,0,0,0,0,0,0,0,0,0,0,0,0],"id":23,"left_children":[1,3,5,7,9,-1,11,-1,-1,13,15,-1,-1,-1,17,-1,-1,19,21,-1,-1,-1,-1],"loss_changes":[1.5150316E2,2.9122005E1,4.2693134E2,2.3093962E1,8.780163E0,0E0,4.658734E1,0E0,0E0,3.7741547E0,1.1028406E1,0E0,0E0,0E0,3.5448723E0,0E0,0E0,2.014342E0,8.4778595E-1,0E0,0E0,0E0,0E0],"parents":[2147483647,0,0,1,1,2,2,3,3,4,4,6,6,9,9,10,10,14,14,17,17,18,18],"right_children":[2,4,6,8,10,-1,12,-1,-1,14,16,-1,-1,-1,18,-1,-1,20,22,-1,-1,-1,-1],"split_conditions":[4.76244E-1,5.30331E-4,2.36191E-1,3.51451E-1,5.67727E-1,-1.3966101E-1,7.62246E-2,-9.321998E-2,1.388601E0,2.77787E-3,8.7803E-2,8.0177206E-1,4.2320256E0,2.0314963E-1,7.99002E-5,8.0177206E-1,-1.085066E-1,7.34831E-2,5.51654E-1,-8.1666246E-2,3.6165038E-1,-1.529618E-1,6.823592E-2],"split_indices":[619,948,820,497,1107,0,602,0,0,499,158,0,0,0,963,0,0,5,1547,0,0,0,0],"split_type":[0,0,0,0,0,0,0,0,0,0,0,0,0,0,0,0,0,0,0,0,0,0,0],"sum_hessian":[2.7512384E2,2.6213086E2,1.2992969E1,2.5895078E0,2.5954135E2,1.0040021E1,2.9529474E0,1.5446186E0,1.0448891E0,2.5608868E2,3.452677E0,1.0448891E0,1.9080583E0,1.9534882E0,2.541352E2,1.0448891E0,2.4077878E0,2.180638E0,2.5195456E2,1.135749E0,1.0448891E0,2.5090967E2,1.0448891E0],"tree_param":{"num_deleted":"0","num_feature":"1568","num_nodes":"23","size_leaf_vector":"1"}},{"base_weights":[-3.4971476E-1,-4.0395996E-1,2.122137E0,1.798427E0,-4.8725912E-1,-1.3632555E-1,2.9509404E0,-5.022955E-1,6.702565E-1,-1.529763E-1,6.398016E-2,5.083576E-1,-9.816586E-2,-1.0727214E-1,2.1494316E-1],"categories":[],"categories_nodes":[],"categories_segments":[],"categories_sizes":[],"default_left":[0,0,0,0,0,0,0,0,0,0,0,0,0,0,0],"id":24,"left_children":[1,3,-1,5,7,-1,-1,9,11,-1,13,-1,-1,-1,-1],"loss_changes":[1.133728E2,5.103308E1,0E0,1.8875702E2,4.935398E0,0E0,0E0,1.1613998E0,4.4538984E0,0E0,1.4559665E0,0E0,0E0,0E0,0E0],"parents":[2147483647,0,0,1,1,3,3,4,4,7,7,8,8,10,10],"right_children":[2,4,-1,6,8,-1,-1,10,12,-1,14,-1,-1,-1,-1],"split_conditions":[4.79208E-1,3.42199E-3,2.122137E0,3.01481E-1,5.04243E-1,-1.3632555E-1,2.9509404E0,4.48139E-1,1.0498E-2,-1.529763E-1,9.91396E-2,5.083576E-1,-9.816586E-2,-1.0727214E-1,2.1494316E-1],"split_indices":[404,605,0,1055,1183,0,0,776,3,0,5,0,0,0,0],"split_type":[0,0,0,0,0,0,0,0,0,0,0,0,0,0,0],"sum_hessian":[2.7344293E2,2.7239804E2,1.0448891E0,9.176852E0,2.632212E2,7.904813E0,1.2720389E0,2.6040454E2,2.8166575E0,2.5704272E2,3.3618171E0,1.0448891E0,1.7717685E0,2.316928E0,1.0448891E0],"tree_param":{"num_deleted":"0","num_feature":"1568","num_nodes":"15","size_leaf_vector":"1"}},{"base_weights":[3.8572732E-1,-1.5231463E-1,7.906415E0,-4.0154618E-1,3.1757774E0,9.1071874E-1,1.5997376E1,-4.834306E-1,1.1239164E0,2.1341942E-1,1.19259615E1,-1.3520089E-1,3.8649476E0,5.083576E-1,5.3359823E0,-5.0080204E-1,7.9467505E-1,-3.684643E-1,1.7983229E0,-3.9595175E-1,1.0093675E0,5.083576E-1,4.349189E0,-9.212292E-2,2.122137E0,-1.528859E-1,2.6672256E-1,5.083576E-1,-8.9804634E-2,-1.373982E-1,6.823592E-2,-1.4076747E-1,6.823592E-2,-8.31639E-2,2.1494316E-1],"categories":[],"categories_nodes":[],"categories_segments":[],"categories_sizes":[],"default_left":[0,0,0,0,0,0,0,0,0,0,0,0,0,0,0,0,0,0,0,0,0,0,0,0,0,0,0,0,0,0,0,0,0,0,0],"id":25,"left_children":[1,3,5,7,9,11,13,15,17,19,21,-1,23,-1,-1,25,27,29,-1,31,-1,-1,-1,-1,-1,-1,33,-1,-1,-1,-1,-1,-1,-1,-1],"loss_changes":[1.112458E3,2.1467216E2,1.0243162E3,3.0551365E1,4.6497528E2,4.5595013E1,1.8611792E2,5.475582E0,9.33516E1,2.9161272E1,9.4967285E1,0E0,4.9618073E1,0E0,0E0,1.6670723E0,3.9068007E0,6.6652083E-1,0E0,7.023301E-1,0E0,0E0,0E0,0E0,0E0,0E0,9.878341E-1,0E0,0E0,0E0,0E0,0E0,0E0,0E0,0E0],"parents":[2147483647,0,0,1,1,2,2,3,3,4,4,5,5,6,6,7,7,8,8,9,9,10,10,12,12,15,15,16,16,17,17,19,19,26,26],"right_children":[2,4,6,8,10,12,14,16,18,20,22,-1,24,-1,-1,26,28,30,-1,32,-1,-1,-1,-1,-1,-1,34,-1,-1,-1,-1,-1,-1,-1,-1],"split_conditions":[2.24624E-1,2.64771E-1,1.05715E-1,4.94079E-1,2.82034E-1,7.49958E-2,6.2771E-2,5.53834E-1,1.63598E-1,6.98908E-2,2.64017E-1,-1.3520089E-1,4.66947E-2,5.083576E-1,5.3359823E0,3.48249E-1,8.94995E-2,2.04972E-1,1.7983229E0,3.18994E-1,1.0093675E0,5.083576E-1,4.349189E0,-9.212292E-2,2.122137E0,-1.528859E-1,6.62795E-2,5.083576E-1,-8.9804634E-2,-1.373982E-1,6.823592E-2,-1.4076747E-1,6.823592E-2,-8.31639E-2,2.1494316E-1],"split_indices":[609,584,1057,1022,825,1077,1077,974,1034,1077,776,0,786,0,0,93,18,13,0,55,0,0,0,0,0,0,0,0,0,0,0,0,0,0,0],"split_type":[0,0,0,0,0,0,0,0,0,0,0,0,0,0,0,0,0,0,0,0,0,0,0,0,0,0,0,0,0,0,0,0,0,0,0],"sum_hessian":[2.7362463E2,2.5627042E2,1.7354244E1,2.3923416E2,1.7036236E1,9.903731E0,7.4505134E0,2.2769496E2,1.1539209E1,1.3492698E1,3.543537E0,7.3596535E0,2.5440779E0,1.0448891E0,6.4056244E0,2.2524174E2,2.4532177E0,9.540292E0,1.9989183E0,1.2038939E1,1.4537587E0,1.0448891E0,2.4986477E0,1.4991887E0,1.0448891E0,2.2301567E2,2.226068E0,1.0448891E0,1.4083288E0,8.495402E0,1.0448891E0,1.099405E1,1.0448891E0,1.1811789E0,1.0448891E0],"tree_param":{"num_deleted":"0","num_feature":"1568","num_nodes":"35","size_leaf_vector":"1"}},{"base_weights":[-1.8922976E-1,-2.989263E-1,5.4671116E0,1.1046937E0,-4.8879924E-1,3.0369782E0,4.664758E-1,-3.1485462E-1,4.0708632E0,6.2471557E-1,-5.01282E-1,3.6165038E-1,-9.321998E-2,-4.4213733E-1,3.1960166E-1,9.840584E0,7.1242607E-1,-7.847131E-2,3.6165038E-1,-5.054826E-1,6.823592E-2,-1.4612582E-1,6.823592E-2,3.5045278E-1,3.8641145E0,-1.3073274E-1,1.2418938E0,-1.5291582E-1,5.4376397E-2],"categories":[],"categories_nodes":[],"categories_segments":[],"categories_sizes":[],"default_left":[0,0,0,0,0,0,0,0,0,0,0,0,0,0,0,0,0,0,0,0,0,0,0,0,0,0,0,0,0],"id":26,"left_children":[1,3,5,7,9,-1,11,13,15,17,19,-1,-1,21,-1,23,25,-1,-1,27,-1,-1,-1,-1,-1,-1,-1,-1,-1],"loss_changes":[1.7183636E2,7.250717E1,1.1799254E2,1.3805516E2,3.6289787E0,0E0,2.436321E0,4.4934936E0,1.9811143E2,1.9057643E0,8.388214E-1,0E0,0E0,7.630153E-1,0E0,8.556958E1,3.2376312E1,0E0,0E0,7.773552E-1,0E0,0E0,0E0,0E0,0E0,0E0,0E0,0E0,0E0],"parents":[2147483647,0,0,1,1,2,2,3,3,4,4,6,6,7,7,8,8,9,9,10,10,13,13,15,15,16,16,19,19],"right_children":[2,4,6,8,10,-1,12,14,16,18,20,-1,-1,22,-1,24,26,-1,-1,28,-1,-1,-1,-1,-1,-1,-1,-1,-1],"split_conditions":[4.71264E-1,2.99562E-3,6.75685E-2,1.00601E-1,1.2988E-3,3.0369782E0,8.57761E-2,5.23291E-1,2.76069E-2,6.07681E-2,3.00761E-1,3.6165038E-1,-9.321998E-2,2.29328E-1,3.1960166E-1,4.56891E-2,1.37728E-1,-7.847131E-2,3.6165038E-1,5.86953E-1,6.823592E-2,-1.4612582E-1,6.823592E-2,3.5045278E-1,3.8641145E0,-1.3073274E-1,1.2418938E0,-1.5291582E-1,5.4376397E-2],"split_indices":[1006,581,1140,789,877,0,21,990,1074,1,608,0,0,106,0,992,690,0,0,344,0,0,0,0,0,0,0,0,0],"split_type":[0,0,0,0,0,0,0,0,0,0,0,0,0,0,0,0,0,0,0,0,0,0,0,0,0,0,0,0,0],"sum_hessian":[2.7330664E2,2.6903622E2,4.2704163E0,3.1482962E1,2.3755325E2,1.6809086E0,2.5895078E0,2.1897242E1,9.585722E0,2.0897782E0,2.3546349E2,1.0448891E0,1.5446186E0,2.0670631E1,1.2266089E0,2.8166575E0,6.769064E0,1.0448891E0,1.0448891E0,2.344186E2,1.0448891E0,1.9625742E1,1.0448891E0,1.090319E0,1.7263385E0,5.724175E0,1.0448891E0,2.3323741E2,1.1811789E0],"tree_param":{"num_deleted":"0","num_feature":"1568","num_nodes":"29","size_leaf_vector":"1"}},{"base_weights":[-4.131461E-1,-4.6644253E-1,3.0443895E0,-4.9501154E-1,4.2019546E-1,2.072678E0,-1.066292E-1,-5.0240284E-1,1.6228771E-1,-1.345817E-1,1.0951866E0,-1.5298243E-1,3.0108528E-2,-9.628808E-2,2.1494316E-1,-1.1078801E-1,2.1494316E-1],"categories":[],"categories_nodes":[],"categories_segments":[],"categories_sizes":[],"default_left":[0,0,0,0,0,0,0,0,0,0,0,0,0,0,0,0,0],"id":27,"left_children":[1,3,5,7,9,-1,-1,11,13,-1,-1,-1,15,-1,-1,-1,-1],"loss_changes":[5.2754635E1,7.1792984E0,5.976437E1,1.3791199E0,2.7267437E1,0E0,0E0,1.0765762E0,1.22777E0,0E0,0E0,0E0,1.5350496E0,0E0,0E0,0E0,0E0],"parents":[2147483647,0,0,1,1,2,2,3,3,4,4,7,7,8,8,12,12],"right_children":[2,4,6,8,10,-1,-1,12,14,-1,-1,-1,16,-1,-1,-1,-1],"split_conditions":[3.11477E-1,2.43291E-1,2.05136E-2,2.82721E-1,4.4935E-2,2.072678E0,-1.066292E-1,3.48249E-1,1.07018E-1,-1.345817E-1,1.0951866E0,-1.5298243E-1,1.4768E-1,-9.628808E-2,2.1494316E-1,-1.1078801E-1,2.1494316E-1],"split_indices":[1038,1038,614,1287,308,0,0,93,1,0,0,0,7,0,0,0,0],"split_type":[0,0,0,0,0,0,0,0,0,0,0,0,0,0,0,0,0],"sum_hessian":[2.7757706E2,2.7421524E2,3.3618171E0,2.6608328E2,8.131963E0,1.090319E0,2.271498E0,2.6335748E2,2.7257977E0,7.087074E0,1.0448891E0,2.5972308E2,3.6343968E0,1.6809086E0,1.0448891E0,2.5895078E0,1.0448891E0],"tree_param":{"num_deleted":"0","num_feature":"1568","num_nodes":"17","size_leaf_vector":"1"}},{"base_weights":[-1.7564994E-1,-4.514746E-1,1.6701288E0,-4.6793166E-1,4.939716E-1,1.4721677E-1,9.471349E0,7.1347845E-1,-4.8850513E-1,-2.6519826E-1,2.0230515E0,1.279508E-2,4.0193334E0,-1.0909946E-1,6.550648E-1,-5.0110984E-1,3.9742333E-1,4.669973E-1,-4.1228205E-1,1.7250177E0,-1.1872623E-1,-1.5290758E-1,1.6534677E-1,3.6165038E-1,-9.905933E-2,1.7810045E-1,-1.4715716E-1],"categories":[],"categories_nodes":[],"categories_segments":[],"categories_sizes":[],"default_left":[0,0,0,0,0,0,0,0,0,0,0,0,0,0,0,0,0,0,0,0,0,0,0,0,0,0,0],"id":28,"left_children":[1,3,5,7,-1,9,11,13,15,17,19,-1,-1,-1,-1,21,23,-1,25,-1,-1,-1,-1,-1,-1,-1,-1],"loss_changes":[1.4082295E2,9.062077E0,4.260813E2,6.15889E0,0E0,2.4611689E1,2.1640942E2,7.9167304E0,2.8295631E0,7.7148232E0,5.3883385E1,0E0,0E0,0E0,0E0,2.3822746E0,2.6688628E0,0E0,2.2757497E0,0E0,0E0,0E0,0E0,0E0,0E0,0E0,0E0],"parents":[2147483647,0,0,1,1,2,2,3,3,5,5,6,6,7,7,8,8,9,9,10,10,15,15,16,16,18,18],"right_children":[2,4,6,8,-1,10,12,14,16,18,20,-1,-1,-1,-1,22,24,-1,26,-1,-1,-1,-1,-1,-1,-1,-1],"split_conditions":[2.91181E-1,5.56703E-1,1.82391E-1,6.18732E-3,4.939716E-1,2.59398E-1,8.3137E-2,1.47946E-1,2.90354E-1,5.05765E-2,3.70497E-2,1.279508E-2,4.0193334E0,-1.0909946E-1,6.550648E-1,3.54218E-1,3.28739E-2,4.669973E-1,2.0474E-2,1.7250177E0,-1.1872623E-1,-1.5290758E-1,1.6534677E-1,3.6165038E-1,-9.905933E-2,1.7810045E-1,-1.4715716E-1],"split_indices":[1270,200,606,1066,0,607,784,67,712,876,747,0,0,0,0,353,2,0,396,0,0,0,0,0,0,0,0],"split_type":[0,0,0,0,0,0,0,0,0,0,0,0,0,0,0,0,0,0,0,0,0,0,0,0,0,0,0],"sum_hessian":[2.741244E2,2.3914331E2,3.4981068E1,2.38053E2,1.090319E0,3.0120064E1,4.861006E0,3.498107E0,2.3455489E2,2.5395348E1,4.7247157E0,1.7263385E0,3.1346672E0,2.4532177E0,1.0448891E0,2.316928E2,2.8620875E0,1.1811789E0,2.4214169E1,1.3174689E0,3.407247E0,2.303299E2,1.3628988E0,1.0448891E0,1.8171984E0,1.2720389E0,2.294213E1],"tree_param":{"num_deleted":"0","num_feature":"1568","num_nodes":"27","size_leaf_vector":"1"}},{"base_weights":[-3.5692528E-1,-4.1464207E-1,1.6633606E0,-4.8330724E-1,1.2775656E0,-4.9458736E-1,6.082457E-1,-3.3675838E-1,5.146636E0,-5.021789E-1,2.5591007E-1,-8.0103494E-2,3.6165038E-1,6.823592E-2,-1.3333097E-1,2.5032344E0,-8.31639E-2,-5.0602704E-1,6.823592E-2,2.1494316E-1,-8.460044E-2,-1.5297101E-1,3.1276174E-2],"categories":[],"categories_nodes":[],"categories_segments":[],"categories_sizes":[],"default_left":[0,0,0,0,0,0,0,0,0,0,0,0,0,0,0,0,0,0,0,0,0,0,0],"id":29,"left_children":[1,3,-1,5,7,9,11,13,15,17,19,-1,-1,-1,-1,-1,-1,21,-1,-1,-1,-1,-1],"loss_changes":[9.573146E1,3.2290134E1,0E0,3.5351295E0,6.983715E1,1.6129189E0,1.9608201E0,6.255249E-1,5.9049484E1,8.402481E-1,1.0125427E0,0E0,0E0,0E0,0E0,0E0,0E0,6.6166687E-1,0E0,0E0,0E0,0E0,0E0],"parents":[2147483647,0,0,1,1,3,3,4,4,5,5,6,6,7,7,8,8,9,9,10,10,17,17],"right_children":[2,4,-1,6,8,10,12,14,16,18,20,-1,-1,-1,-1,-1,-1,22,-1,-1,-1,-1,-1],"split_conditions":[3.30001E-1,4.49792E-1,1.6633606E0,5.35715E-1,1.41408E-1,4.15056E-1,7.11123E-2,4.0155E-3,2.10767E-2,6.86504E-1,5.73271E-2,-8.0103494E-2,3.6165038E-1,6.823592E-2,-1.3333097E-1,2.5032344E0,-8.31639E-2,2.99791E-1,6.823592E-2,2.1494316E-1,-8.460044E-2,-1.5297101E-1,3.1276174E-2],"split_indices":[1269,790,0,1510,830,1485,4,1,748,120,1,0,0,0,0,0,0,301,0,0,0,0,0],"split_type":[0,0,0,0,0,0,0,0,0,0,0,0,0,0,0,0,0,0,0,0,0,0,0],"sum_hessian":[2.7330664E2,2.715803E2,1.7263385E0,2.6167657E2,9.903731E0,2.5954135E2,2.1352081E0,7.632233E0,2.271498E0,2.5726987E2,2.271498E0,1.090319E0,1.0448891E0,1.0448891E0,6.587344E0,1.090319E0,1.1811789E0,2.5622498E2,1.0448891E0,1.0448891E0,1.2266089E0,2.5477121E2,1.4537587E0],"tree_param":{"num_deleted":"0","num_feature":"1568","num_nodes":"23","size_leaf_vector":"1"}},{"base_weights":[-2.543606E-1,-4.1518337E-1,2.6093712E0,-4.5992607E-1,2.086019E0,-1.0321854E-1,8.232618E0,1.2210509E0,-4.7888348E-1,1.4986029E0,-1.061112E-1,5.083576E-1,-1.3820681E-1,3.4763083E-2,3.452796E0,-8.1666246E-2,6.550648E-1,-4.9814725E-1,1.0635338E0,6.823592E-2,-9.628808E-2,2.7784392E-1,-5.05931E-1,-9.098524E-2,6.550648E-1,-8.1666246E-2,2.1494316E-1,-1.5296215E-1,6.823592E-2],"categories":[],"categories_nodes":[],"categories_segments":[],"categories_sizes":[],"default_left":[0,0,0,0,0,0,0,0,0,0,0,0,0,0,0,0,0,0,0,0,0,0,0,0,0,0,0,0,0],"id":30,"left_children":[1,3,5,7,9,11,13,15,17,-1,19,-1,-1,-1,-1,-1,-1,21,23,-1,-1,25,27,-1,-1,-1,-1,-1,-1],"loss_changes":[1.2896452E2,3.0477703E1,2.2815173E2,8.868584E0,3.1245407E1,7.87542E0,1.2796469E2,5.1658497E0,8.188866E0,0E0,3.400163E-1,0E0,0E0,0E0,0E0,0E0,0E0,1.6824417E0,6.0181665E0,0E0,0E0,9.624537E-1,8.478012E-1,0E0,0E0,0E0,0E0,0E0,0E0],"parents":[2147483647,0,0,1,1,2,2,3,3,4,4,5,5,6,6,7,7,8,8,10,10,17,17,18,18,21,21,22,22],"right_children":[2,4,6,8,10,12,14,16,18,-1,20,-1,-1,-1,-1,-1,-1,22,24,-1,-1,26,28,-1,-1,-1,-1,-1,-1],"split_conditions":[4.83651E-1,4.76708E-1,1.01177E-1,2.50024E-3,1.96647E-1,7.39749E-3,2.27038E-2,3.75035E-2,5.51083E-1,1.4986029E0,7.55718E-2,5.083576E-1,-1.3820681E-1,3.4763083E-2,3.452796E0,-8.1666246E-2,6.550648E-1,6.02414E-4,7.73648E-2,6.823592E-2,-9.628808E-2,5.89592E-2,4.62249E-1,-9.098524E-2,6.550648E-1,-8.1666246E-2,2.1494316E-1,-1.5296215E-1,6.823592E-2],"split_indices":[529,1075,819,327,891,60,849,5,1315,0,0,0,0,0,0,0,0,1114,6,0,0,0,272,0,0,0,0,0,0],"split_type":[0,0,0,0,0,0,0,0,0,0,0,0,0,0,0,0,0,0,0,0,0,0,0,0,0,0,0,0,0],"sum_hessian":[2.7666846E2,2.6276688E2,1.3901567E1,2.5895078E2,3.8161166E0,1.0040021E1,3.8615465E0,2.180638E0,2.5677014E2,1.090319E0,2.7257977E0,1.0448891E0,8.995132E0,1.4083288E0,2.4532177E0,1.135749E0,1.0448891E0,2.5427148E2,2.4986477E0,1.0448891E0,1.6809086E0,2.180638E0,2.5209085E2,1.4537587E0,1.0448891E0,1.135749E0,1.0448891E0,2.5104596E2,1.0448891E0],"tree_param":{"num_deleted":"0","num_feature":"1568","num_nodes":"29","size_leaf_vector":"1"}},{"base_weights":[-1.05838776E-1,3.9504812E0,-3.9436474E-1,1.203413E1,-3.9554632E-1,-5.0138104E-1,7.9014057E-1,1.279508E-2,4.909342E0,-1.4071879E-1,6.823592E-2,-1.5292497E-1,1.9926564E-1,5.0947866E0,-4.2786714E-1,2.925076E0,-1.05968155E-1,-1.44509E-1,6.823592E-2],"categories":[],"categories_nodes":[],"categories_segments":[],"categories_sizes":[],"default_left":[0,0,0,0,0,0,0,0,0,0,0,0,0,0,0,0,0,0,0],"id":31,"left_children":[1,3,5,7,9,11,13,-1,-1,-1,-1,-1,-1,15,17,-1,-1,-1,-1],"loss_changes":[3.2583707E2,6.5436505E2,3.330181E1,3.366745E2,7.018001E-1,2.6669312E0,1.1699199E2,0E0,0E0,0E0,0E0,0E0,0E0,1.2789991E2,7.4419856E-1,0E0,0E0,0E0,0E0],"parents":[2147483647,0,0,1,1,2,2,3,3,4,4,5,5,6,6,13,13,14,14],"right_children":[2,4,6,8,10,12,14,-1,-1,-1,-1,-1,-1,16,18,-1,-1,-1,-1],"split_conditions":[3.90854E-3,3.35799E-2,2.54365E-1,1.23089E-1,2.43561E-1,4.57488E-1,1.11125E-1,1.279508E-2,4.909342E0,-1.4071879E-1,6.823592E-2,-1.5292497E-1,1.9926564E-1,4.73312E-2,1.74693E-1,2.925076E0,-1.05968155E-1,-1.44509E-1,6.823592E-2],"split_indices":[638,825,797,1037,77,798,1239,0,0,0,0,0,0,824,66,0,0,0,0],"split_type":[0,0,0,0,0,0,0,0,0,0,0,0,0,0,0,0,0,0,0],"sum_hessian":[2.7607788E2,1.7490534E1,2.5858734E2,5.497025E0,1.1993509E1,2.3768954E2,2.0897781E1,1.7263385E0,3.7706866E0,1.0948621E1,1.0448891E0,2.365538E2,1.135749E0,3.9069765E0,1.6990805E1,1.6809086E0,2.226068E0,1.5945916E1,1.0448891E0],"tree_param":{"num_deleted":"0","num_feature":"1568","num_nodes":"19","size_leaf_vector":"1"}},{"base_weights":[-4.0067196E-1,-4.514494E-1,1.8424003E0,-4.953218E-1,1.6820155E0,-5.0631624E-1,2.6046762E-1,-1.5300158E-1,6.823592E-2],"categories":[],"categories_nodes":[],"categories_segments":[],"categories_sizes":[],"default_left":[0,0,0,0,0,0,0,0,0],"id":32,"left_children":[1,3,-1,5,-1,7,-1,-1,-1],"loss_changes":[9.3893425E1,7.537016E1,0E0,4.518471E0,0E0,8.483124E-1,0E0,0E0,0E0],"parents":[2147483647,0,0,1,1,3,3,5,5],"right_children":[2,4,-1,6,-1,8,-1,-1,-1],"split_conditions":[4.9101E-1,4.6146E-1,1.8424003E0,5.53452E-1,1.6820155E0,6.55254E-1,2.6046762E-1,-1.5300158E-1,6.823592E-2],"split_indices":[570,809,0,762,0,183,0,0,0],"split_type":[0,0,0,0,0,0,0,0,0],"sum_hessian":[2.7330664E2,2.7212546E2,1.1811789E0,2.7108057E2,1.0448891E0,2.6953595E2,1.5446186E0,2.6849106E2,1.0448891E0],"tree_param":{"num_deleted":"0","num_feature":"1568","num_nodes":"9","size_leaf_vector":"1"}},{"base_weights":[-1.2922007E-1,-4.1717392E-1,1.0359819E1,-4.6520132E-1,1.5295756E0,-1.1023959E-1,4.8147182E0,-4.949741E-1,9.067371E-1,-5.0617576E-1,4.664758E-1,-1.529872E-1,6.823592E-2,3.6165038E-1,-9.321998E-2],"categories":[],"categories_nodes":[],"categories_segments":[],"categories_sizes":[],"default_left":[0,0,0,0,0,0,0,0,0,0,0,0,0,0,0],"id":33,"left_children":[1,3,5,7,-1,-1,-1,9,-1,11,13,-1,-1,-1,-1],"loss_changes":[8.3708014E2,7.371396E1,4.5786353E2,2.9314144E1,0E0,0E0,0E0,3.1061935E0,0E0,8.481293E-1,2.436321E0,0E0,0E0,0E0,0E0],"parents":[2147483647,0,0,1,1,2,2,3,3,7,7,9,9,10,10],"right_children":[2,4,6,8,-1,-1,-1,10,-1,12,14,-1,-1,-1,-1],"split_conditions":[2.21616E-1,4.82107E-1,1.70381E-1,4.70202E-1,1.5295756E0,-1.1023959E-1,4.8147182E0,2.60494E-1,9.067371E-1,5.37519E-1,4.74614E-2,-1.529872E-1,6.823592E-2,3.6165038E-1,-9.321998E-2],"split_indices":[1218,1018,763,815,0,0,0,1010,0,538,3,0,0,0,0],"split_type":[0,0,0,0,0,0,0,0,0,0,0,0,0,0,0],"sum_hessian":[2.7471497E2,2.6830936E2,6.4056244E0,2.66901E2,1.4083288E0,2.5440779E0,3.8615465E0,2.6549268E2,1.4083288E0,2.6290317E2,2.5895078E0,2.6185828E2,1.0448891E0,1.0448891E0,1.5446186E0],"tree_param":{"num_deleted":"0","num_feature":"1568","num_nodes":"15","size_leaf_vector":"1"}},{"base_weights":[-3.0499655E-1,-4.653985E-1,8.235307E0,-5.062459E-1,1.0528624E0,5.766974E-1,4.196826E0,-1.5299428E-1,6.341527E-2,3.6165038E-1,-8.31639E-2],"categories":[],"categories_nodes":[],"categories_segments":[],"categories_sizes":[],"default_left":[0,0,0,0,0,0,0,0,0,0,0],"id":34,"left_children":[1,3,5,7,-1,9,-1,-1,-1,-1,-1],"loss_changes":[3.7798212E2,4.545913E1,2.1618353E2,8.2392883E-1,0E0,2.0663924E0,0E0,0E0,0E0,0E0,0E0],"parents":[2147483647,0,0,1,1,2,2,3,3,5,5],"right_children":[2,4,6,8,-1,10,-1,-1,-1,-1,-1],"split_conditions":[4.78935E-1,4.78775E-1,2.48381E-1,3.8021E-1,1.0528624E0,1.21607E-1,4.196826E0,-1.5299428E-1,6.341527E-2,3.6165038E-1,-8.31639E-2],"split_indices":[831,824,764,646,0,15,0,0,0,0,0],"split_type":[0,0,0,0,0,0,0,0,0,0,0],"sum_hessian":[2.7212546E2,2.6803677E2,4.0886965E0,2.6617413E2,1.8626283E0,2.226068E0,1.8626283E0,2.650838E2,1.090319E0,1.0448891E0,1.1811789E0],"tree_param":{"num_deleted":"0","num_feature":"1568","num_nodes":"11","size_leaf_vector":"1"}},{"base_weights":[1.8129751E-1,-4.2829943E-1,1.7531734E1,-4.9867466E-1,3.5394723E0,5.6826077E0,9.484793E-1,-5.0617874E-1,1.593308E-1,-1.1284957E-1,2.708966E0,-1.529865E-1,2.7916037E-2],"categories":[],"categories_nodes":[],"categories_segments":[],"categories_sizes":[],"default_left":[0,0,0,0,0,0,0,0,0,0,0,0,0],"id":35,"left_children":[1,3,5,7,9,-1,-1,11,-1,-1,-1,-1,-1],"loss_changes":[2.9448257E3,7.695239E1,1.3162671E2,2.320076E0,1.0693589E2,0E0,0E0,6.449356E-1,0E0,0E0,0E0,0E0,0E0],"parents":[2147483647,0,0,1,1,2,2,3,3,4,4,7,7],"right_children":[2,4,6,8,10,-1,-1,12,-1,-1,-1,-1,-1],"split_conditions":[4.40733E-1,3.70861E-1,8.90722E-3,3.70849E-1,2.55494E-2,5.6826077E0,9.484793E-1,4.64387E-1,1.593308E-1,-1.1284957E-1,2.708966E0,-1.529865E-1,2.7916037E-2],"split_indices":[1039,1032,820,380,1011,0,0,1000,0,0,0,0,0],"split_type":[0,0,0,0,0,0,0,0,0,0,0,0,0],"sum_hessian":[2.767139E2,2.6826392E2,8.449972E0,2.6444778E2,3.8161166E0,7.4050837E0,1.0448891E0,2.6303946E2,1.4083288E0,2.7712276E0,1.0448891E0,2.6154028E2,1.4991887E0],"tree_param":{"num_deleted":"0","num_feature":"1568","num_nodes":"13","size_leaf_vector":"1"}},{"base_weights":[-2.956314E-1,-4.585145E-1,9.922256E0,-4.9511436E-1,2.0587225E0,-8.5979536E-2,4.2653775E0,-1.529872E-1,1.4576271E-1,1.388601E0,-1.03126675E-1,-1.2716451E-1,5.083576E-1],"categories":[],"categories_nodes":[],"categories_segments":[],"categories_sizes":[],"default_left":[0,0,0,0,0,0,0,0,0,0,0,0,0],"id":36,"left_children":[1,3,5,7,9,-1,-1,-1,11,-1,-1,-1,-1],"loss_changes":[4.6252048E2,2.60611E1,1.9535727E2,2.6305237E0,2.6839073E1,0E0,0E0,0E0,6.770882E0,0E0,0E0,0E0,0E0],"parents":[2147483647,0,0,1,1,2,2,3,3,4,4,8,8],"right_children":[2,4,6,8,10,-1,-1,-1,12,-1,-1,-1,-1],"split_conditions":[4.53595E-1,3.851E-1,6.96611E-2,3.36719E-1,2.99831E-2,-8.5979536E-2,4.2653775E0,-1.529872E-1,2.36426E-1,1.388601E0,-1.03126675E-1,-1.2716451E-1,5.083576E-1],"split_indices":[567,1346,512,1229,224,0,0,0,89,0,0,0,0],"split_type":[0,0,0,0,0,0,0,0,0,0,0,0,0],"sum_hessian":[2.741698E2,2.7080798E2,3.3618171E0,2.6771875E2,3.0892372E0,1.2720389E0,2.0897782E0,2.6185828E2,5.860465E0,1.0448891E0,2.0443482E0,4.8155756E0,1.0448891E0],"tree_param":{"num_deleted":"0","num_feature":"1568","num_nodes":"13","size_leaf_vector":"1"}},{"base_weights":[-4.0054286E-1,-5.0266486E-1,8.582198E0,-1.5300032E-1,1.2354631E-1,5.083576E-1,3.3643467E0,-1.00762516E-1,2.1494316E-1],"categories":[],"categories_nodes":[],"categories_segments":[],"categories_sizes":[],"default_left":[0,0,0,0,0,0,0,0,0],"id":37,"left_children":[1,3,5,-1,7,-1,-1,-1,-1],"loss_changes":[2.5565347E2,1.3118973E0,3.7839233E1,0E0,1.3174497E0,0E0,0E0,0E0,0E0],"parents":[2147483647,0,0,1,1,2,2,4,4],"right_children":[2,4,6,-1,8,-1,-1,-1,-1],"split_conditions":[3.62094E-1,4.3175E-1,4.71319E-1,-1.5300032E-1,1.0594E-1,5.083576E-1,3.3643467E0,-1.00762516E-1,2.1494316E-1],"split_indices":[1079,830,289,0,1,0,0,0,0],"split_type":[0,0,0,0,0,0,0,0,0],"sum_hessian":[2.7298862E2,2.7085342E2,2.1352081E0,2.6790048E2,2.9529474E0,1.0448891E0,1.090319E0,1.9080583E0,1.0448891E0],"tree_param":{"num_deleted":"0","num_feature":"1568","num_nodes":"9","size_leaf_vector":"1"}},{"base_weights":[6.7516005E-1,-2.6498652E-1,1.8237776E1,-3.9783773E-1,9.508164E0,5.9155617E0,6.894049E-1,-4.3224615E-1,1.1280059E0,3.7491238E0,3.6165038E-1,-4.663623E-1,1.1496458E0,-4.9377823E-1,1.0332628E0,-1.20755814E-1,1.2418938E0,-1.5174086E-1,3.397316E-1,-1.1333429E-1,9.484793E-1],"categories":[],"categories_nodes":[],"categories_segments":[],"categories_sizes":[],"default_left":[0,0,0,0,0,0,0,0,0,0,0,0,0,0,0,0,0,0,0,0,0],"id":38,"left_children":[1,3,5,7,9,-1,-1,11,-1,-1,-1,13,15,17,19,-1,-1,-1,-1,-1,-1],"loss_changes":[4.532528E3,3.4300684E2,2.8389014E2,3.86397E1,7.288443E1,0E0,0E0,1.4432793E1,0E0,0E0,0E0,1.0902615E1,2.8234547E1,5.4401703E0,1.579446E1,0E0,0E0,0E0,0E0,0E0,0E0],"parents":[2147483647,0,0,1,1,2,2,3,3,4,4,7,7,11,11,12,12,13,13,14,14],"right_children":[2,4,6,8,10,-1,-1,12,-1,-1,-1,14,16,18,20,-1,-1,-1,-1,-1,-1],"split_conditions":[3.48863E-1,4.3102E-1,1.55812E-1,1.76136E-1,2.47262E-2,5.9155617E0,6.894049E-1,2.43739E-1,1.1280059E0,3.7491238E0,3.6165038E-1,4.84204E-1,3.78971E-2,2.93101E-1,9.98336E-2,-1.20755814E-1,1.2418938E0,-1.5174086E-1,3.397316E-1,-1.1333429E-1,9.484793E-1],"split_indices":[565,750,799,517,744,0,0,774,0,0,0,1015,721,533,55,0,0,0,0,0,0],"split_type":[0,0,0,0,0,0,0,0,0,0,0,0,0,0,0,0,0,0,0,0,0],"sum_hessian":[2.732158E2,2.6026825E2,1.2947538E1,2.5772415E2,2.5440779E0,1.163007E1,1.3174689E0,2.5649756E2,1.2266089E0,1.4991887E0,1.0448891E0,2.5177284E2,4.7247157E0,2.4791129E2,3.8615465E0,3.6798267E0,1.0448891E0,2.4677554E2,1.135749E0,2.8166575E0,1.0448891E0],"tree_param":{"num_deleted":"0","num_feature":"1568","num_nodes":"21","size_leaf_vector":"1"}},{"base_weights":[-3.4356305E-1,-4.4660416E-1,8.452304E0,-1.5299624E-1,2.255021E0,3.4299824E0,3.6165038E-1],"categories":[],"categories_nodes":[],"categories_segments":[],"categories_sizes":[],"default_left":[0,0,0,0,0,0,0],"id":39,"left_children":[1,3,5,-1,-1,-1,-1],"loss_changes":[2.4880661E2,1.391922E2,5.4926926E1,0E0,0E0,0E0,0E0],"parents":[2147483647,0,0,1,1,2,2],"right_children":[2,4,6,-1,-1,-1,-1],"split_conditions":[3.5188E-1,4.92121E-1,9.34851E-3,-1.5299624E-1,2.255021E0,3.4299824E0,3.6165038E-1],"split_indices":[993,588,377,0,0,0,0],"split_type":[0,0,0,0,0,0,0],"sum_hessian":[2.6935422E2,2.6717358E2,2.180638E0,2.659924E2,1.1811789E0,1.135749E0,1.0448891E0],"tree_param":{"num_deleted":"0","num_feature":"1568","num_nodes":"7","size_leaf_vector":"1"}},{"base_weights":[-3.0199862E-1,-3.7389594E-1,5.9370856E0,-4.139564E-1,1.4634593E0,2.8556733E0,-8.1666246E-2,-4.6755785E-1,7.7167153E-1,-4.9019656E-1,4.6311444E-1,1.6121691E0,-1.3887481E-1,-5.0588566E-1,6.9908553E-1,8.0177206E-1,-1.2631276E-1,-1.529575E-1,6.823592E-2,-9.628808E-2,5.083576E-1],"categories":[],"categories_nodes":[],"categories_segments":[],"categories_sizes":[],"default_left":[0,0,0,0,0,0,0,0,0,0,0,0,0,0,0,0,0,0,0,0,0],"id":40,"left_children":[1,3,5,7,-1,-1,-1,9,11,13,15,-1,-1,17,19,-1,-1,-1,-1,-1,-1],"loss_changes":[1.251239E2,5.920811E1,7.333071E1,1.7562382E1,0E0,0E0,0E0,5.696327E0,7.115231E1,5.0912704E0,1.4172254E1,0E0,0E0,8.477402E-1,4.3270288E0,0E0,0E0,0E0,0E0,0E0,0E0],"parents":[2147483647,0,0,1,1,2,2,3,3,7,7,8,8,9,9,10,10,13,13,14,14],"right_children":[2,4,6,8,-1,-1,-1,10,12,14,16,-1,-1,18,20,-1,-1,-1,-1,-1,-1],"split_conditions":[4.49128E-1,3.30377E-1,2.18729E-2,1.53016E-1,1.4634593E0,2.8556733E0,-8.1666246E-2,1.30692E-1,1.17615E-1,2.80436E-1,1.70957E-2,1.6121691E0,-1.3887481E-1,3.71171E-1,2.63857E-2,8.0177206E-1,-1.2631276E-1,-1.529575E-1,6.823592E-2,-9.628808E-2,5.083576E-1],"split_indices":[1052,722,307,752,0,0,0,743,760,741,318,0,0,6,69,0,0,0,0,0,0],"split_type":[0,0,0,0,0,0,0,0,0,0,0,0,0,0,0,0,0,0,0,0,0],"sum_hessian":[2.7298862E2,2.7080798E2,2.180638E0,2.6967224E2,1.135749E0,1.0448891E0,1.135749E0,2.5858734E2,1.108491E1,2.5290858E2,5.678745E0,1.6354785E0,9.449431E0,2.5018279E2,2.7257977E0,1.0448891E0,4.633856E0,2.491379E2,1.0448891E0,1.6809086E0,1.0448891E0],"tree_param":{"num_deleted":"0","num_feature":"1568","num_nodes":"21","size_leaf_vector":"1"}},{"base_weights":[-4.0456638E-1,-4.8804674E-1,2.1984673E0,-1.5300474E-1,5.078741E-1],"categories":[],"categories_nodes":[],"categories_segments":[],"categories_sizes":[],"default_left":[0,0,0,0,0],"id":41,"left_children":[1,3,-1,-1,-1],"loss_changes":[1.8106192E2,1.3941116E1,0E0,0E0,0E0],"parents":[2147483647,0,0,1,1],"right_children":[2,4,-1,-1,-1],"split_conditions":[3.95357E-1,5.53452E-1,2.1984673E0,-1.5300474E-1,5.078741E-1],"split_indices":[625,762,0,0,0],"split_type":[0,0,0,0,0],"sum_hessian":[2.7394266E2,2.7194373E2,1.9989183E0,2.6999026E2,1.9534882E0],"tree_param":{"num_deleted":"0","num_feature":"1568","num_nodes":"5","size_leaf_vector":"1"}},{"base_weights":[-3.9666376E-1,-4.8772478E-1,4.457179E0,-1.5299428E-1,1.0291822E0,3.4299824E0,-1.15163E-1,8.0177206E-1,-1.0528822E-1],"categories":[],"categories_nodes":[],"categories_segments":[],"categories_sizes":[],"default_left":[0,0,0,0,0,0,0,0,0],"id":42,"left_children":[1,3,5,-1,7,-1,-1,-1,-1],"loss_changes":[1.23034744E2,9.616898E0,1.7777696E2,0E0,1.052195E1,0E0,0E0,0E0,0E0],"parents":[2147483647,0,0,1,1,2,2,4,4],"right_children":[2,4,6,-1,8,-1,-1,-1,-1],"split_conditions":[3.27591E-1,3.58543E-1,8.61301E-2,-1.5299428E-1,2.85709E-1,3.4299824E0,-1.15163E-1,8.0177206E-1,-1.0528822E-1],"split_indices":[961,969,745,0,57,0,0,0,0],"split_type":[0,0,0,0,0,0,0,0,0],"sum_hessian":[2.7244348E2,2.6830936E2,4.134126E0,2.650838E2,3.225527E0,1.135749E0,2.9983773E0,1.0448891E0,2.180638E0],"tree_param":{"num_deleted":"0","num_feature":"1568","num_nodes":"9","size_leaf_vector":"1"}},{"base_weights":[-3.0184463E-1,-4.6921733E-1,5.2679306E-1,-1.5196578E-1,9.1732466E-1,-3.1834987E-1,1.4299885E0,5.220322E-1,-8.6553976E-2,-1.3965175E-1,1.9045518E-1,-7.9876736E-2,4.9570855E-1],"categories":[],"categories_nodes":[],"categories_segments":[],"categories_sizes":[],"default_left":[0,0,0,0,0,0,0,0,0,0,0,0,0],"id":43,"left_children":[1,3,5,-1,7,9,11,-1,-1,-1,-1,-1,-1],"loss_changes":[1.7772705E1,5.93425E0,1.7023767E1,0E0,3.603672E0,1.9831153E0,4.4663754E0,0E0,0E0,0E0,0E0,0E0,0E0],"parents":[2147483647,0,0,1,1,2,2,4,4,5,5,6,6],"right_children":[2,4,6,-1,8,10,12,-1,-1,-1,-1,-1,-1],"split_conditions":[2.98979E-1,4.00385E-1,2.88821E-1,-1.5196578E-1,5.82691E-2,2.56024E-1,1.05122E-1,5.220322E-1,-8.6553976E-2,-1.3965175E-1,1.9045518E-1,-7.9876736E-2,4.9570855E-1],"split_indices":[777,1379,603,0,1468,451,1042,0,0,0,0,0,0],"split_type":[0,0,0,0,0,0,0,0,0,0,0,0,0],"sum_hessian":[1.2536349E2,1.04657875E2,2.0705616E1,1.0253168E2,2.1261926E0,1.1031082E1,9.674534E0,1.0004702E0,1.1257224E0,9.999058E0,1.0320241E0,1.098434E0,8.5761E0],"tree_param":{"num_deleted":"0","num_feature":"1568","num_nodes":"13","size_leaf_vector":"1"}},{"base_weights":[4.100751E-1,-4.0901655E-1,8.589677E-1,-4.8181584E-1,2.0640574E-1,-2.3854676E-1,1.0919232E0,1.4540522E-1,-1.5384263E-1,-1.2873517E-1,9.451148E-1,-4.0405566E-1,4.9187687E-1,1.2693535E0,-2.3640959E-1,4.9581978E-1,1.8528517E-1,2.2289272E-1,-1.4792489E-1,2.0753095E0,8.245823E-1,-5.329621E-1,3.9927688E-1,7.9294674E-2,6.378755E-3,9.0952367E-1,2.7345562E0,-2.9038683E-1,1.005875E0,-1.6615792E-1,-4.563025E-2,-1.2869793E-2,4.2114934E-1,9.135707E-1,-1.2329742E-2,-1.3425104E-1,1.5278478E-1,2.0301968E-1,5.292742E-1],"categories":[],"categories_nodes":[],"categories_segments":[],"categories_sizes":[],"default_left":[0,0,0,0,0,0,0,0,0,0,0,0,0,0,0,0,0,0,0,0,0,0,0,0,0,0,0,0,0,0,0,0,0,0,0,0,0,0,0],"id":44,"left_children":[1,3,5,7,9,11,13,-1,-1,-1,15,17,-1,19,21,-1,23,-1,-1,25,27,29,-1,-1,-1,31,33,35,37,-1,-1,-1,-1,-1,-1,-1,-1,-1,-1],"loss_changes":[7.341608E1,3.2816238E0,3.316266E1,2.1600637E0,4.261408E0,7.9217887E0,2.5361984E1,0E0,0E0,0E0,1.9038775E0,2.6399014E0,0E0,3.1971207E1,6.9250464E0,0E0,3.4673505E-2,0E0,0E0,2.2686295E1,1.286655E1,1.09426975E-2,0E0,0E0,0E0,6.3359537E0,1.7738113E1,1.4185169E0,1.2218197E1,0E0,0E0,0E0,0E0,0E0,0E0,0E0,0E0,0E0,0E0],"parents":[2147483647,0,0,1,1,2,2,3,3,4,4,5,5,6,6,10,10,11,11,13,13,14,14,16,16,19,19,20,20,21,21,25,25,26,26,27,27,28,28],"right_children":[2,4,6,8,10,12,14,-1,-1,-1,16,18,-1,20,22,-1,24,-1,-1,26,28,30,-1,-1,-1,32,34,36,38,-1,-1,-1,-1,-1,-1,-1,-1,-1,-1],"split_conditions":[1.41345E-1,2.74864E-1,1.3207E-2,1.13254E-3,1.39283E-1,3.1765E-1,9.13794E-2,1.4540522E-1,-1.5384263E-1,-1.2873517E-1,2.7332E-2,2.97552E-3,4.9187687E-1,2.67228E-1,4.31859E-1,4.9581978E-1,9.16834E-3,2.2289272E-1,-1.4792489E-1,8.52736E-2,1.12181E-1,3.03394E-1,3.9927688E-1,7.9294674E-2,6.378755E-3,1.28482E-1,3.45876E-1,2.83905E-1,6.20453E-3,-1.6615792E-1,-4.563025E-2,-1.2869793E-2,4.2114934E-1,9.135707E-1,-1.2329742E-2,-1.3425104E-1,1.5278478E-1,2.0301968E-1,5.292742E-1],"split_indices":[1000,573,555,1463,784,284,577,0,0,0,21,1562,0,1133,1115,0,1246,0,0,777,768,212,0,0,0,749,812,522,1184,0,0,0,0,0,0,0,0,0,0],"split_type":[0,0,0,0,0,0,0,0,0,0,0,0,0,0,0,0,0,0,0,0,0,0,0,0,0,0,0,0,0,0,0,0,0,0,0,0,0,0,0],"sum_hessian":[1.9771602E2,7.0027E1,1.2768901E2,6.2813755E1,7.2132435E0,2.2353203E1,1.0533581E2,1.4968402E0,6.1316917E1,4.1027136E0,3.11053E0,2.1264181E1,1.0890216E0,9.296282E1,1.2372986E1,1.0021279E0,2.108402E0,1.0024958E0,2.0261686E1,3.1754843E1,6.120798E1,1.0959342E1,1.4136438E0,1.0102023E0,1.0981997E0,1.2330214E1,1.942463E1,8.476269E0,5.2731712E1,9.958685E0,1.0006567E0,4.52491E0,7.805303E0,1.7381943E1,2.0426874E0,7.452428E0,1.023841E0,3.8091774E1,1.4639939E1],"tree_param":{"num_deleted":"0","num_feature":"1568","num_nodes":"39","size_leaf_vector":"1"}},{"base_weights":[2.9190037E-1,-3.9781234E-1,6.7147577E-1,-4.3249923E-1,3.7167832E-1,-3.5035506E-1,8.998422E-1,-4.7868323E-1,8.142535E-1,-5.1822007E-1,1.1063534E0,-9.4319895E-2,1.0341728E0,-5.0276554E-1,1.707475E-1,4.5064285E-2,3.239165E-1,-5.801466E-1,1.5161702E-1,4.9219963E-1,7.6905754E-3,4.4068292E-1,-4.9973133E-1,9.052162E-1,2.1923294E0,-5.259361E-1,2.1585077E-1,-1.4941354E-1,-7.7822757E-1,-8.613777E-2,1.9345018E-1,-1.7836393E-1,4.4177294E-2,1.0307765E0,-1.0249721E-1,3.8203883E-1,3.2310405E0,-1.621162E-1,5.7480585E-2,3.715971E-3,9.253024E-2,-1.0608762E-1,-2.766282E-1,2.2384055E-1,4.2699558E-1,5.7569146E-1,-1.4342418E-1,-1.4538519E-1,2.4183019E-1,1.3791832E0,1.9294988E-1],"categories":[],"categories_nodes":[],"categories_segments":[],"categories_sizes":[],"default_left":[0,0,0,0,0,0,0,0,0,0,0,0,0,0,0,0,0,0,0,0,0,0,0,0,0,0,0,0,0,0,0,0,0,0,0,0,0,0,0,0,0,0,0,0,0,0,0,0,0,0,0],"id":45,"left_children":[1,3,5,7,-1,9,11,13,15,17,19,21,23,25,-1,-1,-1,27,-1,-1,-1,29,31,33,35,37,39,-1,41,-1,-1,-1,-1,43,45,47,49,-1,-1,-1,-1,-1,-1,-1,-1,-1,-1,-1,-1,-1,-1],"loss_changes":[6.1794754E1,5.307928E0,3.577645E1,5.1719055E0,0E0,7.5371304E0,1.6722221E1,2.3229542E0,4.2603707E-1,1.9550376E0,1.8413253E0,3.6330173E0,1.4407074E1,1.4361343E0,0E0,0E0,0E0,2.2010803E-2,0E0,0E0,0E0,1.271973E0,6.654203E-1,1.2816582E1,1.8119823E1,9.044914E-1,5.627428E-2,0E0,1.617837E-2,0E0,0E0,0E0,0E0,8.929115E0,1.0058415E1,2.1865945E0,1.9692764E1,0E0,0E0,0E0,0E0,0E0,0E0,0E0,0E0,0E0,0E0,0E0,0E0,0E0,0E0],"parents":[2147483647,0,0,1,1,2,2,3,3,5,5,6,6,7,7,8,8,9,9,10,10,11,11,12,12,13,13,17,17,21,21,22,22,23,23,24,24,25,25,26,26,28,28,33,33,34,34,35,35,36,36],"right_children":[2,4,6,8,-1,10,12,14,16,18,20,22,24,26,-1,-1,-1,28,-1,-1,-1,30,32,34,36,38,40,-1,42,-1,-1,-1,-1,44,46,48,50,-1,-1,-1,-1,-1,-1,-1,-1,-1,-1,-1,-1,-1,-1],"split_conditions":[9.28877E-2,5.2108E-1,1.01952E-1,4.89578E-1,3.7167832E-1,2.87043E-1,1.29591E-1,2.70433E-1,3.8979E-1,3.33825E-1,4.40977E-3,1.84231E-3,8.18876E-2,4.74527E-1,1.707475E-1,4.5064285E-2,3.239165E-1,4.40245E-1,1.5161702E-1,4.9219963E-1,7.6905754E-3,1.0804E-1,2.74246E-1,2.16341E-1,4.79516E-3,6.18594E-1,3.16676E-1,-1.4941354E-1,3.26217E-1,-8.613777E-2,1.9345018E-1,-1.7836393E-1,4.4177294E-2,2.52973E-1,2.30356E-2,6.29512E-2,2.54649E-1,-1.621162E-1,5.7480585E-2,3.715971E-3,9.253024E-2,-1.0608762E-1,-2.766282E-1,2.2384055E-1,4.2699558E-1,5.7569146E-1,-1.4342418E-1,-1.4538519E-1,2.4183019E-1,1.3791832E0,1.9294988E-1],"split_indices":[781,664,747,603,0,914,811,141,1016,50,849,1267,846,760,0,0,0,351,0,0,0,999,1565,568,1294,1147,564,0,784,0,0,0,0,964,923,66,1149,0,0,0,0,0,0,0,0,0,0,0,0,0,0],"split_type":[0,0,0,0,0,0,0,0,0,0,0,0,0,0,0,0,0,0,0,0,0,0,0,0,0,0,0,0,0,0,0,0,0,0,0,0,0,0,0,0,0,0,0,0,0,0,0,0,0,0,0],"sum_hessian":[2.3401953E2,8.305509E1,1.5096445E2,8.205195E1,1.0031434E0,2.7478241E1,1.234862E2,7.971508E1,2.3368657E0,2.5216635E1,2.2616072E0,1.4734685E1,1.0875152E2,7.843267E1,1.2824119E0,1.1146181E0,1.2222476E0,2.4186623E1,1.0300115E0,1.1666734E0,1.0949337E0,6.3145986E0,8.420087E0,9.945874E1,9.292772E0,7.624249E1,2.1901808E0,1.9583794E1,4.602829E0,1.2942157E0,5.020383E0,7.414553E0,1.0055335E0,8.841892E1,1.103982E1,3.8867142E0,5.4060583E0,7.4979294E1,1.2631962E0,1.0395094E0,1.1506714E0,2.0400147E0,2.5628142E0,5.2935165E1,3.5483757E1,1.0859106E0,9.953909E0,1.2300531E0,2.656661E0,3.0299594E0,2.3760989E0],"tree_param":{"num_deleted":"0","num_feature":"1568","num_nodes":"51","size_leaf_vector":"1"}},{"base_weights":[1.9249956E-1,-3.4106457E-1,8.581886E-1,-3.9370868E-1,7.506843E-1,2.6587946E0,6.1515754E-1,9.117372E-1,-4.368012E-1,-1.1565562E-1,8.0711836E-1,-1.9710407E-1,4.708796E0,9.0557486E-1,-4.934115E-1,-8.989365E-2,5.5939764E-1,-4.8171082E-1,3.0480742E-1,8.128325E-2,-1.1477281E-1,6.306536E0,1.398275E-1,2.9469495E0,7.7246493E-1,7.386175E-2,-1.6748245E-1,-5.0356877E-1,3.158772E-1,-1.1710372E-1,3.5542697E-1,2.212999E0,5.0220835E-1,1.4293339E0,-1.6057335E-2,1.7222848E0,6.14998E-1,-1.5615085E-1,1.5646083E-2,2.2806078E-1,-7.939133E-2,9.798351E-1,1.7339654E-1,-1.0004874E-1,2.0660955E-1],"categories":[],"categories_nodes":[],"categories_segments":[],"categories_sizes":[],"default_left":[0,0,0,0,0,0,0,0,0,0,0,0,0,0,0,0,0,0,0,0,0,0,0,0,0,0,0,0,0,0,0,0,0,0,0,0,0,0,0,0,0,0,0,0,0],"id":46,"left_children":[1,3,5,7,9,11,13,15,17,-1,-1,19,21,23,25,-1,-1,27,29,-1,-1,31,-1,33,35,-1,-1,37,39,-1,-1,-1,-1,-1,-1,41,43,-1,-1,-1,-1,-1,-1,-1,-1],"loss_changes":[6.680075E1,6.310459E0,3.4945164E1,6.0516367E0,1.2405621E1,5.7366356E1,2.4577894E1,4.63966E0,3.409441E0,0E0,0E0,5.3666687E-1,3.537371E1,1.3958313E1,9.149642E-1,0E0,0E0,1.7761173E0,4.258636E0,0E0,0E0,7.609543E0,0E0,1.8262558E1,7.5324707E0,0E0,0E0,8.803692E-1,9.978612E-1,0E0,0E0,0E0,0E0,0E0,0E0,1.1562651E1,3.7829647E0,0E0,0E0,0E0,0E0,0E0,0E0,0E0,0E0],"parents":[2147483647,0,0,1,1,2,2,3,3,4,4,5,5,6,6,7,7,8,8,11,11,12,12,13,13,14,14,17,17,18,18,21,21,23,23,24,24,27,27,28,28,35,35,36,36],"right_children":[2,4,6,8,10,12,14,16,18,-1,-1,20,22,24,26,-1,-1,28,30,-1,-1,32,-1,34,36,-1,-1,38,40,-1,-1,-1,-1,-1,-1,42,44,-1,-1,-1,-1,-1,-1,-1,-1],"split_conditions":[2.48806E-1,3.08103E-1,1.63781E-1,4.85161E-4,2.3227E-1,8.9253E-2,1.10876E-1,2.19127E-1,4.76195E-1,-1.1565562E-1,8.0711836E-1,4.19174E-3,2.10757E-1,9.57158E-2,1.89659E-3,-8.989365E-2,5.5939764E-1,3.27397E-1,1.55495E-1,8.128325E-2,-1.1477281E-1,4.35097E-2,1.398275E-1,4.50917E-2,2.22542E-2,7.386175E-2,-1.6748245E-1,4.1631E-1,1.31251E-2,-1.1710372E-1,3.5542697E-1,2.212999E0,5.0220835E-1,1.4293339E0,-1.6057335E-2,4.21121E-1,8.34369E-2,-1.5615085E-1,1.5646083E-2,2.2806078E-1,-7.939133E-2,9.798351E-1,1.7339654E-1,-1.0004874E-1,2.0660955E-1],"split_indices":[784,242,498,1559,1465,614,540,785,336,0,0,300,539,529,418,0,0,1113,821,0,0,741,0,961,258,0,0,1189,63,0,0,0,0,0,0,521,553,0,0,0,0,0,0,0,0],"split_type":[0,0,0,0,0,0,0,0,0,0,0,0,0,0,0,0,0,0,0,0,0,0,0,0,0,0,0,0,0,0,0,0,0,0,0,0,0,0,0,0,0,0,0,0,0],"sum_hessian":[1.8624757E2,1.0365417E2,8.25934E1,9.949586E1,4.1583095E0,8.639988E0,7.3953415E1,2.535249E0,9.696061E1,3.1275613E0,1.0307484E0,3.9880314E0,4.651956E0,5.8746433E1,1.5206979E1,1.4180859E0,1.1171631E0,9.175467E1,5.205942E0,1.0010338E0,2.9869976E0,3.0259757E0,1.6259804E0,2.3021047E0,5.644433E1,1.0006852E0,1.4206294E1,8.9666E1,2.0886657E0,3.219199E0,1.9867433E0,1.9769282E0,1.0490475E0,1.0675516E0,1.2345531E0,6.613733E0,4.9830597E1,8.707599E1,2.5900123E0,1.0077806E0,1.0808853E0,2.026038E0,4.587695E0,3.3386447E0,4.649195E1],"tree_param":{"num_deleted":"0","num_feature":"1568","num_nodes":"45","size_leaf_vector":"1"}},{"base_weights":[2.8694448E-1,-4.4675836E-1,6.625266E-1,-5.38991E-1,9.49749E-2,1.0312686E0,-2.1405178E-1,5.41284E-2,-5.5374867E-1,-1.4132096E-1,7.235254E-1,-4.1987115E-1,1.2653531E0,-4.4627392E-1,7.7925307E-1,-1.6747569E-1,-4.2788092E-2,2.653972E-1,1.3064718E-2,-1.6259354E-1,1.3449565E-1,2.483902E0,9.869036E-1,-1.4966904E-1,1.8893996E-1,1.0501557E-1,6.251701E-1,3.7948146E0,1.2519766E0,-2.5690952E-1,1.1293975E0,-1.1422762E-1,5.999305E-1,1.12282224E-1,1.3571928E0,1.6503298E-1,7.5427604E-1,-1.4975394E-1,1.1033962E-1,3.688147E-1,-5.6785334E-2,5.5327766E-2,2.0810038E-1],"categories":[],"categories_nodes":[],"categories_segments":[],"categories_sizes":[],"default_left":[0,0,0,0,0,0,0,0,0,0,0,0,0,0,0,0,0,0,0,0,0,0,0,0,0,0,0,0,0,0,0,0,0,0,0,0,0,0,0,0,0,0,0],"id":47,"left_children":[1,3,5,7,9,11,13,-1,15,-1,17,19,21,23,25,-1,-1,-1,-1,-1,-1,27,29,-1,-1,31,-1,33,35,37,39,-1,41,-1,-1,-1,-1,-1,-1,-1,-1,-1,-1],"loss_changes":[5.8769573E1,3.6708012E0,4.571636E1,7.587223E-1,4.393059E0,3.4244537E1,1.015233E1,0E0,3.3416748E-2,0E0,5.959797E-1,1.784049E0,2.66306E1,2.3010373E0,7.186303E0,0E0,0E0,0E0,0E0,0E0,0E0,1.9930794E1,1.29496155E1,0E0,0E0,1.8159406E0,0E0,1.5546074E1,6.9194813E0,1.4180615E0,8.706673E0,0E0,1.4583945E-2,0E0,0E0,0E0,0E0,0E0,0E0,0E0,0E0,0E0,0E0],"parents":[2147483647,0,0,1,1,2,2,3,3,4,4,5,5,6,6,8,8,10,10,11,11,12,12,13,13,14,14,21,21,22,22,25,25,27,27,28,28,29,29,30,30,32,32],"right_children":[2,4,6,8,10,12,14,-1,16,-1,18,20,22,24,26,-1,-1,-1,-1,-1,-1,28,30,-1,-1,32,-1,34,36,38,40,-1,42,-1,-1,-1,-1,-1,-1,-1,-1,-1,-1],"split_conditions":[2.31402E-1,3.33798E-1,6.7371E-2,1.22527E-4,1.08176E-1,4.98957E-2,2.60572E-1,5.41284E-2,4.73726E-1,-1.4132096E-1,1.00917E-1,1.02478E-1,5.07589E-2,2.05629E-1,2.83441E-1,-1.6747569E-1,-4.2788092E-2,2.653972E-1,1.3064718E-2,-1.6259354E-1,1.3449565E-1,3.4092E-2,6.31037E-2,-1.4966904E-1,1.8893996E-1,1.42938E-1,6.251701E-1,1.33438E-1,1.33879E-1,3.56002E-1,5.0777E-2,-1.1422762E-1,1.1761E-1,1.12282224E-1,1.3571928E0,1.6503298E-1,7.5427604E-1,-1.4975394E-1,1.1033962E-1,3.688147E-1,-5.6785334E-2,5.5327766E-2,2.0810038E-1],"split_indices":[1050,739,596,705,593,540,622,0,948,0,993,1069,892,1280,436,0,0,0,0,0,0,451,830,0,0,600,0,812,432,593,1260,0,1561,0,0,0,0,0,0,0,0,0,0],"split_type":[0,0,0,0,0,0,0,0,0,0,0,0,0,0,0,0,0,0,0,0,0,0,0,0,0,0,0,0,0,0,0,0,0,0,0,0,0,0,0,0,0,0,0],"sum_hessian":[2.1119475E2,7.144223E1,1.3975252E2,6.1052776E1,1.0389455E1,9.8247284E1,4.1505234E1,1.0015674E0,6.005121E1,5.5983634E0,4.791092E0,1.3536705E1,8.471058E1,3.4086872E1,7.418362E0,5.904651E1,1.0047021E0,3.6299117E0,1.1611805E0,1.2196987E1,1.3397179E0,1.4283362E1,7.0427216E1,3.3009014E1,1.0778555E0,5.6031604E0,1.8152018E0,5.9119563E0,8.371407E0,7.1564465E0,6.327077E1,2.9440968E0,2.6590636E0,1.3047216E0,4.6072345E0,6.3027062E0,2.0687003E0,5.3014226E0,1.8550241E0,5.8874516E1,4.396252E0,1.0356901E0,1.6233735E0],"tree_param":{"num_deleted":"0","num_feature":"1568","num_nodes":"43","size_leaf_vector":"1"}},{"base_weights":[4.5128295E-1,-2.750865E-1,8.5985214E-1,-4.3679404E-1,7.729571E-1,2.9102045E-1,1.3081312E0,-4.9925947E-1,2.061323E-1,8.941513E-2,2.4253323E0,-1.0050781E-1,9.0445715E-1,2.7604008E0,1.039315E0,-1.5627344E-1,4.9348373E-2,6.661999E-1,-1.300683E-1,-1.2846035E-1,5.914276E-1,4.397119E-2,1.11052E0,-1.91344E-1,5.086215E-1,-1.5813664E-1,1.1973422E0,3.9076176E0,6.743275E-1,-3.4302232E-1,1.2359103E0,2.4995181E-1,3.3803307E-2,-2.1172605E-2,2.4207647E-1,-3.1600046E-1,6.866327E-1,8.017587E-1,2.1649346E0,5.508091E-1,5.1567984E0,-8.1224754E-2,4.9732977E-1,-1.5986618E-1,1.8149996E-1,9.7453755E-1,2.4068804E0,-1.4194405E-1,1.3187253E-1,2.415268E-1,4.405275E-2,-6.2198002E-2,2.8662038E-1,9.5077746E-2,8.204361E-1,2.790349E-1,-2.0452883E-2,1.9951453E0,2.6480554E-2,-1.02610774E-1,1.0450318E-1,3.918713E-1,2.6158711E-2,1.6534234E0,3.380705E-1],"categories":[],"categories_nodes":[],"categories_segments":[],"categories_sizes":[],"default_left":[0,0,0,0,0,0,0,0,0,0,0,0,0,0,0,0,0,0,0,0,0,0,0,0,0,0,0,0,0,0,0,0,0,0,0,0,0,0,0,0,0,0,0,0,0,0,0,0,0,0,0,0,0,0,0,0,0,0,0,0,0,0,0,0,0],"id":48,"left_children":[1,3,5,7,9,11,13,15,17,19,21,23,25,27,29,-1,-1,31,-1,-1,33,-1,-1,35,-1,-1,37,39,41,43,45,-1,-1,-1,-1,47,49,51,53,55,57,59,-1,-1,-1,61,63,-1,-1,-1,-1,-1,-1,-1,-1,-1,-1,-1,-1,-1,-1,-1,-1,-1,-1],"loss_changes":[6.585326E1,1.3955473E1,3.5764618E1,2.9242268E0,1.2322234E1,1.5404697E1,2.7967773E1,1.0100937E0,2.32799E0,2.5636847E0,8.795103E0,6.820333E0,1.1088451E1,2.544503E1,1.8973091E1,0E0,0E0,3.1504226E-1,0E0,0E0,7.6077926E-1,0E0,0E0,4.463584E0,0E0,0E0,6.30624E0,2.8028877E1,4.126051E0,1.9930005E0,1.6010033E1,0E0,0E0,0E0,0E0,4.32359E0,2.1039271E-1,2.7564392E0,4.9346447E0,7.950325E-1,3.9125732E1,5.6629664E-1,0E0,0E0,0E0,1.4811756E1,3.4574127E1,0E0,0E0,0E0,0E0,0E0,0E0,0E0,0E0,0E0,0E0,0E0,0E0,0E0,0E0,0E0,0E0,0E0,0E0],"parents":[2147483647,0,0,1,1,2,2,3,3,4,4,5,5,6,6,7,7,8,8,9,9,10,10,11,11,12,12,13,13,14,14,17,17,20,20,23,23,26,26,27,27,28,28,29,29,30,30,35,35,36,36,37,37,38,38,39,39,40,40,41,41,45,45,46,46],"right_children":[2,4,6,8,10,12,14,16,18,20,22,24,26,28,30,-1,-1,32,-1,-1,34,-1,-1,36,-1,-1,38,40,42,44,46,-1,-1,-1,-1,48,50,52,54,56,58,60,-1,-1,-1,62,64,-1,-1,-1,-1,-1,-1,-1,-1,-1,-1,-1,-1,-1,-1,-1,-1,-1,-1],"split_conditions":[1.39436E-1,3.00399E-1,7.17489E-2,3.82739E-1,1.93907E-1,5.16068E-1,1.34111E-1,5.17129E-1,3.43198E-3,2.93859E-1,2.95054E-1,2.61103E-1,5.12678E-2,8.84174E-2,4.21419E-2,-1.5627344E-1,4.9348373E-2,1.57757E-2,-1.300683E-1,-1.2846035E-1,1.63993E-1,4.397119E-2,1.11052E0,5.87027E-1,5.086215E-1,-1.5813664E-1,1.06945E-1,3.6891E-2,1.51853E-1,4.89817E-1,9.15944E-2,2.4995181E-1,3.3803307E-2,-2.1172605E-2,2.4207647E-1,2.49146E-1,1.68417E-3,8.66479E-2,1.68814E-1,2.66118E-3,8.10443E-2,4.72219E-1,4.9732977E-1,-1.5986618E-1,1.8149996E-1,7.18536E-3,4.57681E-2,-1.4194405E-1,1.3187253E-1,2.415268E-1,4.405275E-2,-6.2198002E-2,2.8662038E-1,9.5077746E-2,8.204361E-1,2.790349E-1,-2.0452883E-2,1.9951453E0,2.6480554E-2,-1.02610774E-1,1.0450318E-1,3.918713E-1,2.6158711E-2,1.6534234E0,3.380705E-1],"split_indices":[964,1248,1006,1223,65,475,1314,1023,371,521,344,1167,572,201,596,0,0,600,0,0,551,0,0,382,0,0,1033,1098,1501,1297,1507,0,0,0,0,1144,1085,26,989,318,396,120,0,0,0,721,1250,0,0,0,0,0,0,0,0,0,0,0,0,0,0,0,0,0,0],"split_type":[0,0,0,0,0,0,0,0,0,0,0,0,0,0,0,0,0,0,0,0,0,0,0,0,0,0,0,0,0,0,0,0,0,0,0,0,0,0,0,0,0,0,0,0,0,0,0,0,0,0,0,0,0,0,0,0,0,0,0,0,0,0,0,0,0],"sum_hessian":[2.2010135E2,7.935241E1,1.4074895E2,6.925063E1,1.0101774E1,6.2760235E1,7.7988716E1,6.3321865E1,5.928768E0,7.8914237E0,2.2103508E0,3.8819622E1,2.3940615E1,1.0733366E1,6.725535E1,6.152993E1,1.7919335E0,3.4244592E0,2.504309E0,3.9577193E0,3.9337044E0,1.1938316E0,1.0165192E0,3.780112E1,1.0185019E0,3.9302704E0,2.0010344E1,6.3616447E0,4.3717213E0,8.281328E0,5.897402E1,2.2427137E0,1.1817455E0,1.1311812E0,2.8025231E0,3.3661842E1,4.139279E0,1.5501453E1,4.50889E0,2.1161218E0,4.2455235E0,2.9911213E0,1.3806E0,7.264356E0,1.016972E0,4.9710384E1,9.263633E0,2.8175606E1,5.486235E0,2.991345E0,1.1479341E0,2.002186E0,1.3499268E1,1.4294369E0,3.0794532E0,1.0004256E0,1.1156961E0,3.0380907E0,1.2074324E0,1.9879271E0,1.0031941E0,3.5840614E1,1.3869772E1,1.739264E0,7.524369E0],"tree_param":{"num_deleted":"0","num_feature":"1568","num_nodes":"65","size_leaf_vector":"1"}},{"base_weights":[-2.0814233E-1,-4.9076226E-1,9.939969E-1,-1.5149069E-1,9.875228E-2,2.3072078E0,6.193612E-1,1.2183401E-1,1.0747006E0,-1.432416E-1,7.9274637E-1,7.841029E-2,2.444261E-1],"categories":[],"categories_nodes":[],"categories_segments":[],"categories_sizes":[],"default_left":[0,0,0,0,0,0,0,0,0,0,0,0,0],"id":49,"left_children":[1,3,5,-1,-1,7,9,-1,-1,-1,11,-1,-1],"loss_changes":[4.748242E1,1.4785767E0,1.16869335E1,0E0,0E0,1.2000235E1,4.5831327E0,0E0,0E0,0E0,1.4702797E-2,0E0,0E0],"parents":[2147483647,0,0,1,1,2,2,5,5,6,6,10,10],"right_children":[2,4,6,-1,-1,8,10,-1,-1,-1,12,-1,-1],"split_conditions":[3.93832E-1,4.9727E-1,5.34722E-2,-1.5149069E-1,